digraph Tree {
node [shape=box] ;
graph [ranksep=equally, splines=polyline] ;
0 [label="cleaning_fee <= 1996.0\nmse = 511598.558\nsamples = 9840\nvalue = 337.635"] ;
1 [label="bathrooms <= 3.25\nmse = 366667.362\nsamples = 9833\nvalue = 327.469"] ;
0 -> 1 [labeldistance=2.5, labelangle=45, headlabel="True"] ;
2 [label="bedrooms <= 1.5\nmse = 246990.488\nsamples = 9431\nvalue = 287.513"] ;
1 -> 2 ;
3 [label="security_deposit <= 1839.5\nmse = 78843.625\nsamples = 5657\nvalue = 188.658"] ;
2 -> 3 ;
4 [label="cleaning_fee <= 96.5\nmse = 21602.876\nsamples = 5411\nvalue = 180.266"] ;
3 -> 4 ;
5 [label="extra_people <= 99.5\nmse = 11507.522\nsamples = 2147\nvalue = 142.176"] ;
4 -> 5 ;
6 [label="accommodates <= 1.5\nmse = 8550.118\nsamples = 1953\nvalue = 136.417"] ;
5 -> 6 ;
7 [label="cleaning_fee <= 43.5\nmse = 1372.509\nsamples = 166\nvalue = 79.145"] ;
6 -> 7 ;
8 [label="maximum_nights <= 1124.5\nmse = 773.901\nsamples = 103\nvalue = 71.039"] ;
7 -> 8 ;
9 [label="bathrooms <= 1.25\nmse = 511.634\nsamples = 58\nvalue = 63.328"] ;
8 -> 9 ;
10 [label="cleaning_fee <= 32.5\nmse = 563.859\nsamples = 45\nvalue = 67.311"] ;
9 -> 10 ;
11 [label="minimum_nights <= 2.5\nmse = 521.414\nsamples = 37\nvalue = 71.135"] ;
10 -> 11 ;
12 [label="bathrooms <= 0.75\nmse = 383.353\nsamples = 29\nvalue = 67.483"] ;
11 -> 12 ;
13 [label="mse = 0.0\nsamples = 1\nvalue = 109.0"] ;
12 -> 13 ;
14 [label="maximum_nights <= 29.0\nmse = 333.286\nsamples = 28\nvalue = 66.0"] ;
12 -> 14 ;
15 [label="mse = 204.744\nsamples = 11\nvalue = 58.273"] ;
14 -> 15 ;
16 [label="maximum_nights <= 35.5\nmse = 352.824\nsamples = 17\nvalue = 71.0"] ;
14 -> 16 ;
17 [label="mse = 352.8\nsamples = 5\nvalue = 86.0"] ;
16 -> 17 ;
18 [label="mse = 220.021\nsamples = 12\nvalue = 64.75"] ;
16 -> 18 ;
19 [label="mse = 798.234\nsamples = 8\nvalue = 84.375"] ;
11 -> 19 ;
20 [label="mse = 379.734\nsamples = 8\nvalue = 49.625"] ;
10 -> 20 ;
21 [label="mse = 85.787\nsamples = 13\nvalue = 49.538"] ;
9 -> 21 ;
22 [label="security_deposit <= 160.0\nmse = 936.511\nsamples = 45\nvalue = 80.978"] ;
8 -> 22 ;
23 [label="extra_people <= 27.5\nmse = 612.887\nsamples = 38\nvalue = 76.184"] ;
22 -> 23 ;
24 [label="extra_people <= 21.5\nmse = 651.061\nsamples = 21\nvalue = 86.286"] ;
23 -> 24 ;
25 [label="cleaning_fee <= 19.5\nmse = 665.884\nsamples = 19\nvalue = 84.105"] ;
24 -> 25 ;
26 [label="mse = 348.311\nsamples = 14\nvalue = 79.786"] ;
25 -> 26 ;
27 [label="mse = 1356.56\nsamples = 5\nvalue = 96.2"] ;
25 -> 27 ;
28 [label="mse = 36.0\nsamples = 2\nvalue = 107.0"] ;
24 -> 28 ;
29 [label="bathrooms <= 1.25\nmse = 283.972\nsamples = 17\nvalue = 63.706"] ;
23 -> 29 ;
30 [label="mse = 261.76\nsamples = 10\nvalue = 72.2"] ;
29 -> 30 ;
31 [label="mse = 65.388\nsamples = 7\nvalue = 51.571"] ;
29 -> 31 ;
32 [label="mse = 1891.429\nsamples = 7\nvalue = 107.0"] ;
22 -> 32 ;
33 [label="bathrooms <= 2.25\nmse = 2068.144\nsamples = 63\nvalue = 92.397"] ;
7 -> 33 ;
34 [label="minimum_nights <= 5.5\nmse = 1945.372\nsamples = 62\nvalue = 90.823"] ;
33 -> 34 ;
35 [label="extra_people <= 55.0\nmse = 2032.821\nsamples = 56\nvalue = 93.5"] ;
34 -> 35 ;
36 [label="extra_people <= 48.5\nmse = 2343.074\nsamples = 45\nvalue = 98.244"] ;
35 -> 36 ;
37 [label="cleaning_fee <= 74.0\nmse = 1075.182\nsamples = 37\nvalue = 89.297"] ;
36 -> 37 ;
38 [label="cleaning_fee <= 46.5\nmse = 531.893\nsamples = 28\nvalue = 83.5"] ;
37 -> 38 ;
39 [label="mse = 90.25\nsamples = 2\nvalue = 110.5"] ;
38 -> 39 ;
40 [label="bathrooms <= 1.75\nmse = 505.475\nsamples = 26\nvalue = 81.423"] ;
38 -> 40 ;
41 [label="maximum_nights <= 74.5\nmse = 311.472\nsamples = 24\nvalue = 79.667"] ;
40 -> 41 ;
42 [label="mse = 76.96\nsamples = 5\nvalue = 93.2"] ;
41 -> 42 ;
43 [label="cleaning_fee <= 55.0\nmse = 312.305\nsamples = 19\nvalue = 76.105"] ;
41 -> 43 ;
44 [label="mse = 315.609\nsamples = 13\nvalue = 72.077"] ;
43 -> 44 ;
45 [label="mse = 193.806\nsamples = 6\nvalue = 84.833"] ;
43 -> 45 ;
46 [label="mse = 2352.25\nsamples = 2\nvalue = 102.5"] ;
40 -> 46 ;
47 [label="mse = 2335.556\nsamples = 9\nvalue = 107.333"] ;
37 -> 47 ;
48 [label="mse = 6124.484\nsamples = 8\nvalue = 139.625"] ;
36 -> 48 ;
49 [label="mse = 294.81\nsamples = 11\nvalue = 74.091"] ;
35 -> 49 ;
50 [label="mse = 437.806\nsamples = 6\nvalue = 65.833"] ;
34 -> 50 ;
51 [label="mse = 0.0\nsamples = 1\nvalue = 190.0"] ;
33 -> 51 ;
52 [label="extra_people <= 8.0\nmse = 8883.865\nsamples = 1787\nvalue = 141.737"] ;
6 -> 52 ;
53 [label="accommodates <= 2.5\nmse = 12976.557\nsamples = 579\nvalue = 170.356"] ;
52 -> 53 ;
54 [label="security_deposit <= 386.5\nmse = 11699.356\nsamples = 400\nvalue = 154.33"] ;
53 -> 54 ;
55 [label="minimum_nights <= 11.5\nmse = 5678.747\nsamples = 289\nvalue = 141.412"] ;
54 -> 55 ;
56 [label="maximum_nights <= 150.0\nmse = 5417.941\nsamples = 287\nvalue = 140.003"] ;
55 -> 56 ;
57 [label="cleaning_fee <= 89.5\nmse = 4833.126\nsamples = 137\nvalue = 129.672"] ;
56 -> 57 ;
58 [label="minimum_nights <= 4.5\nmse = 4561.973\nsamples = 133\nvalue = 127.068"] ;
57 -> 58 ;
59 [label="maximum_nights <= 17.5\nmse = 4391.401\nsamples = 132\nvalue = 125.826"] ;
58 -> 59 ;
60 [label="maximum_nights <= 15.5\nmse = 7613.678\nsamples = 49\nvalue = 142.51"] ;
59 -> 60 ;
61 [label="maximum_nights <= 11.0\nmse = 6273.27\nsamples = 48\nvalue = 136.979"] ;
60 -> 61 ;
62 [label="maximum_nights <= 5.5\nmse = 3922.948\nsamples = 39\nvalue = 123.641"] ;
61 -> 62 ;
63 [label="mse = 9728.609\nsamples = 8\nvalue = 165.875"] ;
62 -> 63 ;
64 [label="cleaning_fee <= 37.5\nmse = 1845.611\nsamples = 31\nvalue = 112.742"] ;
62 -> 64 ;
65 [label="security_deposit <= 370.5\nmse = 1529.51\nsamples = 20\nvalue = 98.7"] ;
64 -> 65 ;
66 [label="minimum_nights <= 1.5\nmse = 1411.275\nsamples = 18\nvalue = 104.056"] ;
65 -> 66 ;
67 [label="mse = 1749.062\nsamples = 9\nvalue = 114.222"] ;
66 -> 67 ;
68 [label="mse = 866.765\nsamples = 9\nvalue = 93.889"] ;
66 -> 68 ;
69 [label="mse = 12.25\nsamples = 2\nvalue = 50.5"] ;
65 -> 69 ;
70 [label="mse = 1410.017\nsamples = 11\nvalue = 138.273"] ;
64 -> 70 ;
71 [label="mse = 12346.395\nsamples = 9\nvalue = 194.778"] ;
61 -> 71 ;
72 [label="mse = 0.0\nsamples = 1\nvalue = 408.0"] ;
60 -> 72 ;
73 [label="cleaning_fee <= 22.5\nmse = 2227.734\nsamples = 83\nvalue = 115.976"] ;
59 -> 73 ;
74 [label="guests_included <= 1.5\nmse = 2831.511\nsamples = 37\nvalue = 126.946"] ;
73 -> 74 ;
75 [label="maximum_nights <= 20.5\nmse = 2304.147\nsamples = 32\nvalue = 120.906"] ;
74 -> 75 ;
76 [label="mse = 552.25\nsamples = 2\nvalue = 174.5"] ;
75 -> 76 ;
77 [label="maximum_nights <= 26.5\nmse = 2216.689\nsamples = 30\nvalue = 117.333"] ;
75 -> 77 ;
78 [label="mse = 16.0\nsamples = 2\nvalue = 74.0"] ;
77 -> 78 ;
79 [label="maximum_nights <= 29.0\nmse = 2230.173\nsamples = 28\nvalue = 120.429"] ;
77 -> 79 ;
80 [label="mse = 11449.0\nsamples = 2\nvalue = 173.0"] ;
79 -> 80 ;
81 [label="cleaning_fee <= 10.0\nmse = 1292.083\nsamples = 26\nvalue = 116.385"] ;
79 -> 81 ;
82 [label="minimum_nights <= 1.5\nmse = 1180.666\nsamples = 25\nvalue = 113.88"] ;
81 -> 82 ;
83 [label="maximum_nights <= 32.5\nmse = 933.902\nsamples = 16\nvalue = 125.812"] ;
82 -> 83 ;
84 [label="mse = 1922.25\nsamples = 4\nvalue = 155.5"] ;
83 -> 84 ;
85 [label="mse = 212.743\nsamples = 12\nvalue = 115.917"] ;
83 -> 85 ;
86 [label="mse = 916.222\nsamples = 9\nvalue = 92.667"] ;
82 -> 86 ;
87 [label="mse = 0.0\nsamples = 1\nvalue = 179.0"] ;
81 -> 87 ;
88 [label="mse = 4479.04\nsamples = 5\nvalue = 165.6"] ;
74 -> 88 ;
89 [label="cleaning_fee <= 55.0\nmse = 1567.433\nsamples = 46\nvalue = 107.152"] ;
73 -> 89 ;
90 [label="maximum_nights <= 27.0\nmse = 1396.684\nsamples = 32\nvalue = 97.062"] ;
89 -> 90 ;
91 [label="mse = 218.139\nsamples = 6\nvalue = 71.833"] ;
90 -> 91 ;
92 [label="cleaning_fee <= 25.5\nmse = 1487.871\nsamples = 26\nvalue = 102.885"] ;
90 -> 92 ;
93 [label="mse = 0.0\nsamples = 1\nvalue = 47.0"] ;
92 -> 93 ;
94 [label="beds <= 1.5\nmse = 1417.466\nsamples = 25\nvalue = 105.12"] ;
92 -> 94 ;
95 [label="minimum_nights <= 1.5\nmse = 1486.432\nsamples = 22\nvalue = 108.5"] ;
94 -> 95 ;
96 [label="mse = 2098.667\nsamples = 3\nvalue = 140.0"] ;
95 -> 96 ;
97 [label="bedrooms <= 0.5\nmse = 1208.355\nsamples = 19\nvalue = 103.526"] ;
95 -> 97 ;
98 [label="mse = 2309.04\nsamples = 5\nvalue = 118.6"] ;
97 -> 98 ;
99 [label="mse = 705.122\nsamples = 14\nvalue = 98.143"] ;
97 -> 99 ;
100 [label="mse = 213.556\nsamples = 3\nvalue = 80.333"] ;
94 -> 100 ;
101 [label="mse = 1193.168\nsamples = 14\nvalue = 130.214"] ;
89 -> 101 ;
102 [label="mse = 0.0\nsamples = 1\nvalue = 291.0"] ;
58 -> 102 ;
103 [label="mse = 6127.688\nsamples = 4\nvalue = 216.25"] ;
57 -> 103 ;
104 [label="bathrooms <= 1.75\nmse = 5765.526\nsamples = 150\nvalue = 149.44"] ;
56 -> 104 ;
105 [label="guests_included <= 1.5\nmse = 5901.856\nsamples = 136\nvalue = 154.816"] ;
104 -> 105 ;
106 [label="beds <= 1.5\nmse = 6336.952\nsamples = 114\nvalue = 160.272"] ;
105 -> 106 ;
107 [label="minimum_nights <= 3.5\nmse = 6860.69\nsamples = 87\nvalue = 168.103"] ;
106 -> 107 ;
108 [label="cleaning_fee <= 85.0\nmse = 6894.723\nsamples = 84\nvalue = 170.774"] ;
107 -> 108 ;
109 [label="cleaning_fee <= 79.5\nmse = 6962.768\nsamples = 82\nvalue = 172.293"] ;
108 -> 109 ;
110 [label="cleaning_fee <= 59.0\nmse = 7266.255\nsamples = 75\nvalue = 167.893"] ;
109 -> 110 ;
111 [label="cleaning_fee <= 45.0\nmse = 7925.37\nsamples = 59\nvalue = 174.051"] ;
110 -> 111 ;
112 [label="cleaning_fee <= 10.0\nmse = 7262.038\nsamples = 46\nvalue = 163.696"] ;
111 -> 112 ;
113 [label="bathrooms <= 1.25\nmse = 5917.868\nsamples = 21\nvalue = 185.524"] ;
112 -> 113 ;
114 [label="bathrooms <= 0.5\nmse = 6034.24\nsamples = 20\nvalue = 182.6"] ;
113 -> 114 ;
115 [label="mse = 0.0\nsamples = 1\nvalue = 151.0"] ;
114 -> 115 ;
116 [label="maximum_nights <= 744.5\nmse = 6296.51\nsamples = 19\nvalue = 184.263"] ;
114 -> 116 ;
117 [label="mse = 0.0\nsamples = 1\nvalue = 159.0"] ;
116 -> 117 ;
118 [label="maximum_nights <= 1124.5\nmse = 6608.889\nsamples = 18\nvalue = 185.667"] ;
116 -> 118 ;
119 [label="mse = 0.0\nsamples = 1\nvalue = 221.0"] ;
118 -> 119 ;
120 [label="bedrooms <= 0.5\nmse = 6919.889\nsamples = 17\nvalue = 183.588"] ;
118 -> 120 ;
121 [label="mse = 2970.25\nsamples = 2\nvalue = 194.5"] ;
120 -> 121 ;
122 [label="mse = 7428.516\nsamples = 15\nvalue = 182.133"] ;
120 -> 122 ;
123 [label="mse = 0.0\nsamples = 1\nvalue = 244.0"] ;
113 -> 123 ;
124 [label="cleaning_fee <= 27.5\nmse = 7654.71\nsamples = 25\nvalue = 145.36"] ;
112 -> 124 ;
125 [label="mse = 1867.929\nsamples = 13\nvalue = 117.385"] ;
124 -> 125 ;
126 [label="mse = 12157.389\nsamples = 12\nvalue = 175.667"] ;
124 -> 126 ;
127 [label="mse = 8550.521\nsamples = 13\nvalue = 210.692"] ;
111 -> 127 ;
128 [label="cleaning_fee <= 72.5\nmse = 4180.402\nsamples = 16\nvalue = 145.188"] ;
110 -> 128 ;
129 [label="mse = 5469.455\nsamples = 11\nvalue = 153.0"] ;
128 -> 129 ;
130 [label="mse = 914.8\nsamples = 5\nvalue = 128.0"] ;
128 -> 130 ;
131 [label="mse = 1281.959\nsamples = 7\nvalue = 219.429"] ;
109 -> 131 ;
132 [label="mse = 132.25\nsamples = 2\nvalue = 108.5"] ;
108 -> 132 ;
133 [label="mse = 117.556\nsamples = 3\nvalue = 93.333"] ;
107 -> 133 ;
134 [label="cleaning_fee <= 10.0\nmse = 3814.925\nsamples = 27\nvalue = 135.037"] ;
106 -> 134 ;
135 [label="mse = 4924.8\nsamples = 10\nvalue = 173.0"] ;
134 -> 135 ;
136 [label="cleaning_fee <= 57.5\nmse = 1815.619\nsamples = 17\nvalue = 112.706"] ;
134 -> 136 ;
137 [label="mse = 540.484\nsamples = 8\nvalue = 84.375"] ;
136 -> 137 ;
138 [label="mse = 1601.432\nsamples = 9\nvalue = 137.889"] ;
136 -> 138 ;
139 [label="minimum_nights <= 4.0\nmse = 2693.793\nsamples = 22\nvalue = 126.545"] ;
105 -> 139 ;
140 [label="cleaning_fee <= 72.5\nmse = 2440.522\nsamples = 21\nvalue = 122.381"] ;
139 -> 140 ;
141 [label="minimum_nights <= 2.5\nmse = 2446.917\nsamples = 18\nvalue = 129.833"] ;
140 -> 141 ;
142 [label="guests_included <= 4.0\nmse = 1934.25\nsamples = 16\nvalue = 123.5"] ;
141 -> 142 ;
143 [label="mse = 1668.516\nsamples = 15\nvalue = 118.533"] ;
142 -> 143 ;
144 [label="mse = 0.0\nsamples = 1\nvalue = 198.0"] ;
142 -> 144 ;
145 [label="mse = 3660.25\nsamples = 2\nvalue = 180.5"] ;
141 -> 145 ;
146 [label="mse = 69.556\nsamples = 3\nvalue = 77.667"] ;
140 -> 146 ;
147 [label="mse = 0.0\nsamples = 1\nvalue = 214.0"] ;
139 -> 147 ;
148 [label="mse = 1432.883\nsamples = 14\nvalue = 97.214"] ;
104 -> 148 ;
149 [label="mse = 1980.25\nsamples = 2\nvalue = 343.5"] ;
55 -> 149 ;
150 [label="cleaning_fee <= 79.0\nmse = 25808.9\nsamples = 111\nvalue = 187.964"] ;
54 -> 150 ;
151 [label="minimum_nights <= 1.5\nmse = 33213.006\nsamples = 79\nvalue = 208.671"] ;
150 -> 151 ;
152 [label="security_deposit <= 403.0\nmse = 83903.17\nsamples = 21\nvalue = 283.857"] ;
151 -> 152 ;
153 [label="mse = 160617.556\nsamples = 9\nvalue = 406.0"] ;
152 -> 153 ;
154 [label="mse = 6786.354\nsamples = 12\nvalue = 192.25"] ;
152 -> 154 ;
155 [label="bedrooms <= 0.5\nmse = 12071.834\nsamples = 58\nvalue = 181.448"] ;
151 -> 155 ;
156 [label="mse = 1673.58\nsamples = 9\nvalue = 116.444"] ;
155 -> 156 ;
157 [label="security_deposit <= 1332.5\nmse = 13063.054\nsamples = 49\nvalue = 193.388"] ;
155 -> 157 ;
158 [label="cleaning_fee <= 65.5\nmse = 12586.625\nsamples = 48\nvalue = 189.479"] ;
157 -> 158 ;
159 [label="maximum_nights <= 14.5\nmse = 6029.344\nsamples = 37\nvalue = 176.703"] ;
158 -> 159 ;
160 [label="mse = 2260.75\nsamples = 4\nvalue = 254.5"] ;
159 -> 160 ;
161 [label="maximum_nights <= 465.0\nmse = 5663.592\nsamples = 33\nvalue = 167.273"] ;
159 -> 161 ;
162 [label="maximum_nights <= 28.0\nmse = 2611.859\nsamples = 16\nvalue = 149.625"] ;
161 -> 162 ;
163 [label="mse = 4028.222\nsamples = 6\nvalue = 185.667"] ;
162 -> 163 ;
164 [label="mse = 515.0\nsamples = 10\nvalue = 128.0"] ;
162 -> 164 ;
165 [label="cleaning_fee <= 62.5\nmse = 7966.81\nsamples = 17\nvalue = 183.882"] ;
161 -> 165 ;
166 [label="mse = 8767.976\nsamples = 13\nvalue = 202.846"] ;
165 -> 166 ;
167 [label="mse = 395.688\nsamples = 4\nvalue = 122.25"] ;
165 -> 167 ;
168 [label="mse = 32246.975\nsamples = 11\nvalue = 232.455"] ;
158 -> 168 ;
169 [label="mse = 0.0\nsamples = 1\nvalue = 381.0"] ;
157 -> 169 ;
170 [label="security_deposit <= 629.0\nmse = 3858.194\nsamples = 32\nvalue = 136.844"] ;
150 -> 170 ;
171 [label="minimum_nights <= 2.5\nmse = 2376.118\nsamples = 22\nvalue = 115.136"] ;
170 -> 171 ;
172 [label="guests_included <= 1.5\nmse = 1273.867\nsamples = 18\nvalue = 104.278"] ;
171 -> 172 ;
173 [label="mse = 1196.964\nsamples = 14\nvalue = 112.5"] ;
172 -> 173 ;
174 [label="mse = 478.25\nsamples = 4\nvalue = 75.5"] ;
172 -> 174 ;
175 [label="mse = 4418.0\nsamples = 4\nvalue = 164.0"] ;
171 -> 175 ;
176 [label="mse = 3801.44\nsamples = 10\nvalue = 184.6"] ;
170 -> 176 ;
177 [label="cleaning_fee <= 67.5\nmse = 13974.24\nsamples = 179\nvalue = 206.168"] ;
53 -> 177 ;
178 [label="beds <= 2.5\nmse = 16900.065\nsamples = 120\nvalue = 218.208"] ;
177 -> 178 ;
179 [label="maximum_nights <= 9.0\nmse = 20940.428\nsamples = 83\nvalue = 232.867"] ;
178 -> 179 ;
180 [label="mse = 0.0\nsamples = 1\nvalue = 489.0"] ;
179 -> 180 ;
181 [label="maximum_nights <= 348.0\nmse = 20385.995\nsamples = 82\nvalue = 229.744"] ;
179 -> 181 ;
182 [label="cleaning_fee <= 54.5\nmse = 7732.049\nsamples = 30\nvalue = 191.467"] ;
181 -> 182 ;
183 [label="bedrooms <= 0.5\nmse = 6373.004\nsamples = 28\nvalue = 180.179"] ;
182 -> 183 ;
184 [label="mse = 9620.98\nsamples = 7\nvalue = 244.143"] ;
183 -> 184 ;
185 [label="bathrooms <= 1.5\nmse = 3471.932\nsamples = 21\nvalue = 158.857"] ;
183 -> 185 ;
186 [label="guests_included <= 3.5\nmse = 2902.454\nsamples = 19\nvalue = 149.421"] ;
185 -> 186 ;
187 [label="security_deposit <= 900.0\nmse = 2698.235\nsamples = 17\nvalue = 157.0"] ;
186 -> 187 ;
188 [label="cleaning_fee <= 15.0\nmse = 1527.859\nsamples = 16\nvalue = 148.125"] ;
187 -> 188 ;
189 [label="mse = 1418.765\nsamples = 9\nvalue = 168.111"] ;
188 -> 189 ;
190 [label="mse = 494.245\nsamples = 7\nvalue = 122.429"] ;
188 -> 190 ;
191 [label="mse = 0.0\nsamples = 1\nvalue = 299.0"] ;
187 -> 191 ;
192 [label="mse = 0.0\nsamples = 2\nvalue = 85.0"] ;
186 -> 192 ;
193 [label="mse = 0.25\nsamples = 2\nvalue = 248.5"] ;
185 -> 193 ;
194 [label="mse = 0.25\nsamples = 2\nvalue = 349.5"] ;
182 -> 194 ;
195 [label="minimum_nights <= 2.5\nmse = 26353.412\nsamples = 52\nvalue = 251.827"] ;
181 -> 195 ;
196 [label="accommodates <= 5.5\nmse = 36679.984\nsamples = 32\nvalue = 278.125"] ;
195 -> 196 ;
197 [label="cleaning_fee <= 12.5\nmse = 36868.054\nsamples = 31\nvalue = 272.548"] ;
196 -> 197 ;
198 [label="accommodates <= 3.5\nmse = 44395.64\nsamples = 20\nvalue = 290.4"] ;
197 -> 198 ;
199 [label="mse = 65989.234\nsamples = 8\nvalue = 355.625"] ;
198 -> 199 ;
200 [label="mse = 25272.91\nsamples = 12\nvalue = 246.917"] ;
198 -> 200 ;
201 [label="mse = 21548.628\nsamples = 11\nvalue = 240.091"] ;
197 -> 201 ;
202 [label="mse = 0.0\nsamples = 1\nvalue = 451.0"] ;
196 -> 202 ;
203 [label="security_deposit <= 600.0\nmse = 6953.887\nsamples = 20\nvalue = 209.75"] ;
195 -> 203 ;
204 [label="minimum_nights <= 17.5\nmse = 3718.444\nsamples = 18\nvalue = 191.667"] ;
203 -> 204 ;
205 [label="minimum_nights <= 4.5\nmse = 3425.176\nsamples = 17\nvalue = 197.0"] ;
204 -> 205 ;
206 [label="mse = 1774.686\nsamples = 13\nvalue = 182.077"] ;
205 -> 206 ;
207 [label="mse = 5713.25\nsamples = 4\nvalue = 245.5"] ;
205 -> 207 ;
208 [label="mse = 0.0\nsamples = 1\nvalue = 101.0"] ;
204 -> 208 ;
209 [label="mse = 6642.25\nsamples = 2\nvalue = 372.5"] ;
203 -> 209 ;
210 [label="beds <= 7.5\nmse = 6273.138\nsamples = 37\nvalue = 185.324"] ;
178 -> 210 ;
211 [label="accommodates <= 4.5\nmse = 5767.46\nsamples = 36\nvalue = 189.611"] ;
210 -> 211 ;
212 [label="bathrooms <= 1.5\nmse = 5055.39\nsamples = 33\nvalue = 182.606"] ;
211 -> 212 ;
213 [label="maximum_nights <= 45.0\nmse = 4971.929\nsamples = 30\nvalue = 188.733"] ;
212 -> 213 ;
214 [label="mse = 3216.64\nsamples = 5\nvalue = 230.4"] ;
213 -> 214 ;
215 [label="beds <= 3.5\nmse = 4906.32\nsamples = 25\nvalue = 180.4"] ;
213 -> 215 ;
216 [label="mse = 4416.249\nsamples = 15\nvalue = 165.533"] ;
215 -> 216 ;
217 [label="mse = 4812.61\nsamples = 10\nvalue = 202.7"] ;
215 -> 217 ;
218 [label="mse = 1760.222\nsamples = 3\nvalue = 121.333"] ;
212 -> 218 ;
219 [label="mse = 7122.889\nsamples = 3\nvalue = 266.667"] ;
211 -> 219 ;
220 [label="mse = 0.0\nsamples = 1\nvalue = 31.0"] ;
210 -> 220 ;
221 [label="accommodates <= 6.5\nmse = 7128.795\nsamples = 59\nvalue = 181.678"] ;
177 -> 221 ;
222 [label="accommodates <= 3.5\nmse = 5131.615\nsamples = 57\nvalue = 173.439"] ;
221 -> 222 ;
223 [label="security_deposit <= 450.0\nmse = 3093.231\nsamples = 26\nvalue = 141.0"] ;
222 -> 223 ;
224 [label="beds <= 2.5\nmse = 1077.853\nsamples = 22\nvalue = 128.318"] ;
223 -> 224 ;
225 [label="maximum_nights <= 8.0\nmse = 993.588\nsamples = 20\nvalue = 124.25"] ;
224 -> 225 ;
226 [label="mse = 0.0\nsamples = 1\nvalue = 179.0"] ;
225 -> 226 ;
227 [label="maximum_nights <= 15.5\nmse = 879.812\nsamples = 19\nvalue = 121.368"] ;
225 -> 227 ;
228 [label="mse = 0.0\nsamples = 1\nvalue = 58.0"] ;
227 -> 228 ;
229 [label="maximum_nights <= 745.0\nmse = 693.21\nsamples = 18\nvalue = 124.889"] ;
227 -> 229 ;
230 [label="mse = 687.889\nsamples = 6\nvalue = 137.667"] ;
229 -> 230 ;
231 [label="mse = 573.417\nsamples = 12\nvalue = 118.5"] ;
229 -> 231 ;
232 [label="mse = 100.0\nsamples = 2\nvalue = 169.0"] ;
224 -> 232 ;
233 [label="mse = 8428.188\nsamples = 4\nvalue = 210.75"] ;
223 -> 233 ;
234 [label="minimum_nights <= 13.0\nmse = 5218.487\nsamples = 31\nvalue = 200.645"] ;
222 -> 234 ;
235 [label="maximum_nights <= 27.5\nmse = 4272.032\nsamples = 30\nvalue = 194.633"] ;
234 -> 235 ;
236 [label="mse = 694.96\nsamples = 5\nvalue = 152.8"] ;
235 -> 236 ;
237 [label="beds <= 1.5\nmse = 4567.44\nsamples = 25\nvalue = 203.0"] ;
235 -> 237 ;
238 [label="mse = 5107.918\nsamples = 7\nvalue = 236.286"] ;
237 -> 238 ;
239 [label="guests_included <= 1.5\nmse = 3758.83\nsamples = 18\nvalue = 190.056"] ;
237 -> 239 ;
240 [label="mse = 2588.583\nsamples = 12\nvalue = 171.5"] ;
239 -> 240 ;
241 [label="mse = 4033.472\nsamples = 6\nvalue = 227.167"] ;
239 -> 241 ;
242 [label="mse = 0.0\nsamples = 1\nvalue = 381.0"] ;
234 -> 242 ;
243 [label="mse = 6972.25\nsamples = 2\nvalue = 416.5"] ;
221 -> 243 ;
244 [label="guests_included <= 1.5\nmse = 6341.491\nsamples = 1208\nvalue = 128.02"] ;
52 -> 244 ;
245 [label="cleaning_fee <= 37.0\nmse = 4014.057\nsamples = 676\nvalue = 102.611"] ;
244 -> 245 ;
246 [label="extra_people <= 79.5\nmse = 1757.15\nsamples = 367\nvalue = 88.954"] ;
245 -> 246 ;
247 [label="accommodates <= 5.5\nmse = 1561.068\nsamples = 338\nvalue = 85.905"] ;
246 -> 247 ;
248 [label="extra_people <= 47.0\nmse = 1566.208\nsamples = 322\nvalue = 87.242"] ;
247 -> 248 ;
249 [label="accommodates <= 4.5\nmse = 1457.596\nsamples = 201\nvalue = 82.587"] ;
248 -> 249 ;
250 [label="maximum_nights <= 150.0\nmse = 1324.372\nsamples = 198\nvalue = 81.404"] ;
249 -> 250 ;
251 [label="maximum_nights <= 75.0\nmse = 746.338\nsamples = 88\nvalue = 73.159"] ;
250 -> 251 ;
252 [label="accommodates <= 3.5\nmse = 770.1\nsamples = 79\nvalue = 75.278"] ;
251 -> 252 ;
253 [label="maximum_nights <= 7.5\nmse = 725.576\nsamples = 71\nvalue = 72.732"] ;
252 -> 253 ;
254 [label="mse = 399.81\nsamples = 10\nvalue = 53.7"] ;
253 -> 254 ;
255 [label="extra_people <= 22.5\nmse = 709.863\nsamples = 61\nvalue = 75.852"] ;
253 -> 255 ;
256 [label="beds <= 1.5\nmse = 1162.25\nsamples = 18\nvalue = 84.833"] ;
255 -> 256 ;
257 [label="mse = 1339.006\nsamples = 13\nvalue = 92.385"] ;
256 -> 257 ;
258 [label="mse = 168.96\nsamples = 5\nvalue = 65.2"] ;
256 -> 258 ;
259 [label="cleaning_fee <= 17.5\nmse = 472.596\nsamples = 43\nvalue = 72.093"] ;
255 -> 259 ;
260 [label="maximum_nights <= 44.0\nmse = 491.591\nsamples = 27\nvalue = 76.963"] ;
259 -> 260 ;
261 [label="maximum_nights <= 17.5\nmse = 513.13\nsamples = 23\nvalue = 74.0"] ;
260 -> 261 ;
262 [label="mse = 851.75\nsamples = 8\nvalue = 84.0"] ;
261 -> 262 ;
263 [label="mse = 250.756\nsamples = 15\nvalue = 68.667"] ;
261 -> 263 ;
264 [label="mse = 27.0\nsamples = 4\nvalue = 94.0"] ;
260 -> 264 ;
265 [label="extra_people <= 32.5\nmse = 332.984\nsamples = 16\nvalue = 63.875"] ;
259 -> 265 ;
266 [label="mse = 70.56\nsamples = 5\nvalue = 46.8"] ;
265 -> 266 ;
267 [label="mse = 259.504\nsamples = 11\nvalue = 71.636"] ;
265 -> 267 ;
268 [label="mse = 597.109\nsamples = 8\nvalue = 97.875"] ;
252 -> 268 ;
269 [label="mse = 152.247\nsamples = 9\nvalue = 54.556"] ;
251 -> 269 ;
270 [label="minimum_nights <= 2.5\nmse = 1688.909\nsamples = 110\nvalue = 88.0"] ;
250 -> 270 ;
271 [label="extra_people <= 28.5\nmse = 1542.378\nsamples = 88\nvalue = 83.909"] ;
270 -> 271 ;
272 [label="extra_people <= 22.5\nmse = 923.234\nsamples = 29\nvalue = 72.276"] ;
271 -> 272 ;
273 [label="cleaning_fee <= 10.0\nmse = 1050.928\nsamples = 20\nvalue = 80.35"] ;
272 -> 273 ;
274 [label="mse = 1423.96\nsamples = 10\nvalue = 94.8"] ;
273 -> 274 ;
275 [label="mse = 260.29\nsamples = 10\nvalue = 65.9"] ;
273 -> 275 ;
276 [label="mse = 172.667\nsamples = 9\nvalue = 54.333"] ;
272 -> 276 ;
277 [label="extra_people <= 33.0\nmse = 1747.488\nsamples = 59\nvalue = 89.627"] ;
271 -> 277 ;
278 [label="cleaning_fee <= 9.5\nmse = 2072.268\nsamples = 26\nvalue = 100.038"] ;
277 -> 278 ;
279 [label="beds <= 2.5\nmse = 973.405\nsamples = 17\nvalue = 85.647"] ;
278 -> 279 ;
280 [label="security_deposit <= 190.0\nmse = 935.059\nsamples = 16\nvalue = 88.062"] ;
279 -> 280 ;
281 [label="mse = 951.204\nsamples = 14\nvalue = 91.286"] ;
280 -> 281 ;
282 [label="mse = 240.25\nsamples = 2\nvalue = 65.5"] ;
280 -> 282 ;
283 [label="mse = 0.0\nsamples = 1\nvalue = 47.0"] ;
279 -> 283 ;
284 [label="mse = 3017.728\nsamples = 9\nvalue = 127.222"] ;
278 -> 284 ;
285 [label="cleaning_fee <= 19.5\nmse = 1338.911\nsamples = 33\nvalue = 81.424"] ;
277 -> 285 ;
286 [label="cleaning_fee <= 9.5\nmse = 2175.859\nsamples = 16\nvalue = 94.125"] ;
285 -> 286 ;
287 [label="mse = 1611.582\nsamples = 15\nvalue = 87.467"] ;
286 -> 287 ;
288 [label="mse = 0.0\nsamples = 1\nvalue = 194.0"] ;
286 -> 288 ;
289 [label="maximum_nights <= 745.0\nmse = 256.484\nsamples = 17\nvalue = 69.471"] ;
285 -> 289 ;
290 [label="mse = 113.688\nsamples = 4\nvalue = 86.75"] ;
289 -> 290 ;
291 [label="mse = 180.284\nsamples = 13\nvalue = 64.154"] ;
289 -> 291 ;
292 [label="security_deposit <= 159.5\nmse = 1940.322\nsamples = 22\nvalue = 104.364"] ;
270 -> 292 ;
293 [label="mse = 818.596\nsamples = 15\nvalue = 87.733"] ;
292 -> 293 ;
294 [label="mse = 2481.429\nsamples = 7\nvalue = 140.0"] ;
292 -> 294 ;
295 [label="mse = 4061.556\nsamples = 3\nvalue = 160.667"] ;
249 -> 295 ;
296 [label="security_deposit <= 1099.0\nmse = 1650.834\nsamples = 121\nvalue = 94.975"] ;
248 -> 296 ;
297 [label="minimum_nights <= 1.5\nmse = 1574.712\nsamples = 119\nvalue = 93.706"] ;
296 -> 297 ;
298 [label="security_deposit <= 449.5\nmse = 1250.734\nsamples = 62\nvalue = 86.484"] ;
297 -> 298 ;
299 [label="accommodates <= 3.5\nmse = 1140.324\nsamples = 54\nvalue = 89.833"] ;
298 -> 299 ;
300 [label="accommodates <= 2.5\nmse = 1221.262\nsamples = 43\nvalue = 95.605"] ;
299 -> 300 ;
301 [label="maximum_nights <= 5.5\nmse = 1010.364\nsamples = 35\nvalue = 90.086"] ;
300 -> 301 ;
302 [label="mse = 0.0\nsamples = 1\nvalue = 50.0"] ;
301 -> 302 ;
303 [label="beds <= 1.5\nmse = 991.43\nsamples = 34\nvalue = 91.265"] ;
301 -> 303 ;
304 [label="maximum_nights <= 1062.5\nmse = 1101.842\nsamples = 26\nvalue = 95.346"] ;
303 -> 304 ;
305 [label="mse = 337.529\nsamples = 15\nvalue = 86.933"] ;
304 -> 305 ;
306 [label="mse = 1915.967\nsamples = 11\nvalue = 106.818"] ;
304 -> 306 ;
307 [label="mse = 402.5\nsamples = 8\nvalue = 78.0"] ;
303 -> 307 ;
308 [label="mse = 1427.688\nsamples = 8\nvalue = 119.75"] ;
300 -> 308 ;
309 [label="mse = 184.744\nsamples = 11\nvalue = 67.273"] ;
299 -> 309 ;
310 [label="mse = 1409.109\nsamples = 8\nvalue = 63.875"] ;
298 -> 310 ;
311 [label="accommodates <= 3.5\nmse = 1808.667\nsamples = 57\nvalue = 101.561"] ;
297 -> 311 ;
312 [label="security_deposit <= 385.5\nmse = 1681.566\nsamples = 52\nvalue = 97.673"] ;
311 -> 312 ;
313 [label="extra_people <= 62.5\nmse = 1074.459\nsamples = 44\nvalue = 91.636"] ;
312 -> 313 ;
314 [label="maximum_nights <= 9.0\nmse = 1037.278\nsamples = 35\nvalue = 95.914"] ;
313 -> 314 ;
315 [label="mse = 126.688\nsamples = 4\nvalue = 72.75"] ;
314 -> 315 ;
316 [label="bathrooms <= 1.25\nmse = 1076.604\nsamples = 31\nvalue = 98.903"] ;
314 -> 316 ;
317 [label="cleaning_fee <= 25.0\nmse = 1121.194\nsamples = 25\nvalue = 103.08"] ;
316 -> 317 ;
318 [label="accommodates <= 2.5\nmse = 1034.578\nsamples = 23\nvalue = 106.826"] ;
317 -> 318 ;
319 [label="extra_people <= 52.5\nmse = 1063.793\nsamples = 18\nvalue = 101.389"] ;
318 -> 319 ;
320 [label="mse = 621.021\nsamples = 12\nvalue = 92.75"] ;
319 -> 320 ;
321 [label="mse = 1501.556\nsamples = 6\nvalue = 118.667"] ;
319 -> 321 ;
322 [label="mse = 439.84\nsamples = 5\nvalue = 126.4"] ;
318 -> 322 ;
323 [label="mse = 100.0\nsamples = 2\nvalue = 60.0"] ;
317 -> 323 ;
324 [label="mse = 515.25\nsamples = 6\nvalue = 81.5"] ;
316 -> 324 ;
325 [label="mse = 871.111\nsamples = 9\nvalue = 75.0"] ;
313 -> 325 ;
326 [label="mse = 3717.859\nsamples = 8\nvalue = 130.875"] ;
312 -> 326 ;
327 [label="mse = 1338.0\nsamples = 5\nvalue = 142.0"] ;
311 -> 327 ;
328 [label="mse = 380.25\nsamples = 2\nvalue = 170.5"] ;
296 -> 328 ;
329 [label="extra_people <= 45.0\nmse = 697.75\nsamples = 16\nvalue = 59.0"] ;
247 -> 329 ;
330 [label="mse = 45.918\nsamples = 7\nvalue = 43.286"] ;
329 -> 330 ;
331 [label="mse = 863.284\nsamples = 9\nvalue = 71.222"] ;
329 -> 331 ;
332 [label="minimum_nights <= 1.5\nmse = 2671.905\nsamples = 29\nvalue = 124.483"] ;
246 -> 332 ;
333 [label="mse = 1788.071\nsamples = 13\nvalue = 105.077"] ;
332 -> 333 ;
334 [label="cleaning_fee <= 9.5\nmse = 2835.438\nsamples = 16\nvalue = 140.25"] ;
332 -> 334 ;
335 [label="mse = 1836.0\nsamples = 14\nvalue = 127.0"] ;
334 -> 335 ;
336 [label="mse = 0.0\nsamples = 2\nvalue = 233.0"] ;
334 -> 336 ;
337 [label="security_deposit <= 985.0\nmse = 6209.946\nsamples = 309\nvalue = 118.832"] ;
245 -> 337 ;
338 [label="cleaning_fee <= 59.5\nmse = 5691.216\nsamples = 296\nvalue = 116.142"] ;
337 -> 338 ;
339 [label="extra_people <= 56.5\nmse = 2957.958\nsamples = 135\nvalue = 104.341"] ;
338 -> 339 ;
340 [label="extra_people <= 32.0\nmse = 1575.231\nsamples = 104\nvalue = 96.74"] ;
339 -> 340 ;
341 [label="bathrooms <= 1.25\nmse = 1857.373\nsamples = 48\nvalue = 104.792"] ;
340 -> 341 ;
342 [label="beds <= 3.5\nmse = 1208.904\nsamples = 36\nvalue = 97.611"] ;
341 -> 342 ;
343 [label="beds <= 1.5\nmse = 1103.125\nsamples = 32\nvalue = 92.5"] ;
342 -> 343 ;
344 [label="bathrooms <= 0.5\nmse = 909.384\nsamples = 17\nvalue = 103.294"] ;
343 -> 344 ;
345 [label="mse = 0.0\nsamples = 1\nvalue = 50.0"] ;
344 -> 345 ;
346 [label="maximum_nights <= 210.0\nmse = 777.609\nsamples = 16\nvalue = 106.625"] ;
344 -> 346 ;
347 [label="mse = 755.389\nsamples = 12\nvalue = 114.667"] ;
346 -> 347 ;
348 [label="mse = 68.25\nsamples = 4\nvalue = 82.5"] ;
346 -> 348 ;
349 [label="mse = 1040.996\nsamples = 15\nvalue = 80.267"] ;
343 -> 349 ;
350 [label="mse = 174.25\nsamples = 4\nvalue = 138.5"] ;
342 -> 350 ;
351 [label="mse = 3184.056\nsamples = 12\nvalue = 126.333"] ;
341 -> 351 ;
352 [label="minimum_nights <= 2.5\nmse = 1230.206\nsamples = 56\nvalue = 89.839"] ;
340 -> 352 ;
353 [label="maximum_nights <= 17.5\nmse = 687.124\nsamples = 47\nvalue = 83.936"] ;
352 -> 353 ;
354 [label="mse = 467.673\nsamples = 7\nvalue = 105.429"] ;
353 -> 354 ;
355 [label="extra_people <= 46.5\nmse = 630.544\nsamples = 40\nvalue = 80.175"] ;
353 -> 355 ;
356 [label="cleaning_fee <= 44.5\nmse = 564.01\nsamples = 25\nvalue = 73.52"] ;
355 -> 356 ;
357 [label="mse = 668.44\nsamples = 10\nvalue = 88.4"] ;
356 -> 357 ;
358 [label="mse = 248.373\nsamples = 15\nvalue = 63.6"] ;
356 -> 358 ;
359 [label="mse = 544.596\nsamples = 15\nvalue = 91.267"] ;
355 -> 359 ;
360 [label="mse = 2934.0\nsamples = 9\nvalue = 120.667"] ;
352 -> 360 ;
361 [label="extra_people <= 59.0\nmse = 6752.845\nsamples = 31\nvalue = 129.839"] ;
339 -> 361 ;
362 [label="mse = 0.0\nsamples = 1\nvalue = 384.0"] ;
361 -> 362 ;
363 [label="extra_people <= 75.0\nmse = 4752.899\nsamples = 30\nvalue = 121.367"] ;
361 -> 363 ;
364 [label="mse = 1348.959\nsamples = 14\nvalue = 97.571"] ;
363 -> 364 ;
365 [label="minimum_nights <= 2.5\nmse = 6802.402\nsamples = 16\nvalue = 142.188"] ;
363 -> 365 ;
366 [label="mse = 2529.333\nsamples = 15\nvalue = 125.0"] ;
365 -> 366 ;
367 [label="mse = 0.0\nsamples = 1\nvalue = 400.0"] ;
365 -> 367 ;
368 [label="extra_people <= 27.5\nmse = 7768.384\nsamples = 161\nvalue = 126.037"] ;
338 -> 368 ;
369 [label="minimum_nights <= 1.5\nmse = 24725.987\nsamples = 34\nvalue = 154.794"] ;
368 -> 369 ;
370 [label="mse = 98867.556\nsamples = 6\nvalue = 309.333"] ;
369 -> 370 ;
371 [label="beds <= 2.5\nmse = 2624.218\nsamples = 28\nvalue = 121.679"] ;
369 -> 371 ;
372 [label="bathrooms <= 1.75\nmse = 1218.678\nsamples = 17\nvalue = 95.294"] ;
371 -> 372 ;
373 [label="mse = 1237.157\nsamples = 11\nvalue = 108.545"] ;
372 -> 373 ;
374 [label="mse = 272.667\nsamples = 6\nvalue = 71.0"] ;
372 -> 374 ;
375 [label="mse = 2057.884\nsamples = 11\nvalue = 162.455"] ;
371 -> 375 ;
376 [label="beds <= 1.5\nmse = 2947.893\nsamples = 127\nvalue = 118.339"] ;
368 -> 376 ;
377 [label="minimum_nights <= 4.0\nmse = 3426.766\nsamples = 73\nvalue = 131.027"] ;
376 -> 377 ;
378 [label="security_deposit <= 407.5\nmse = 3043.632\nsamples = 71\nvalue = 127.662"] ;
377 -> 378 ;
379 [label="bathrooms <= 1.25\nmse = 1546.408\nsamples = 55\nvalue = 119.255"] ;
378 -> 379 ;
380 [label="cleaning_fee <= 87.5\nmse = 1682.928\nsamples = 38\nvalue = 130.421"] ;
379 -> 380 ;
381 [label="extra_people <= 50.5\nmse = 1702.689\nsamples = 34\nvalue = 134.676"] ;
380 -> 381 ;
382 [label="security_deposit <= 158.5\nmse = 2056.85\nsamples = 20\nvalue = 146.5"] ;
381 -> 382 ;
383 [label="mse = 2342.994\nsamples = 13\nvalue = 159.077"] ;
382 -> 383 ;
384 [label="mse = 686.122\nsamples = 7\nvalue = 123.143"] ;
382 -> 384 ;
385 [label="mse = 711.74\nsamples = 14\nvalue = 117.786"] ;
381 -> 385 ;
386 [label="mse = 52.688\nsamples = 4\nvalue = 94.25"] ;
380 -> 386 ;
387 [label="cleaning_fee <= 87.0\nmse = 339.502\nsamples = 17\nvalue = 94.294"] ;
379 -> 387 ;
388 [label="mse = 245.408\nsamples = 14\nvalue = 97.857"] ;
387 -> 388 ;
389 [label="mse = 442.889\nsamples = 3\nvalue = 77.667"] ;
387 -> 389 ;
390 [label="security_deposit <= 417.5\nmse = 7112.121\nsamples = 16\nvalue = 156.562"] ;
378 -> 390 ;
391 [label="mse = 0.0\nsamples = 2\nvalue = 350.0"] ;
390 -> 391 ;
392 [label="mse = 2019.066\nsamples = 14\nvalue = 128.929"] ;
390 -> 392 ;
393 [label="mse = 2352.25\nsamples = 2\nvalue = 250.5"] ;
377 -> 393 ;
394 [label="extra_people <= 79.5\nmse = 1788.632\nsamples = 54\nvalue = 101.185"] ;
376 -> 394 ;
395 [label="minimum_nights <= 2.5\nmse = 1558.279\nsamples = 49\nvalue = 96.082"] ;
394 -> 395 ;
396 [label="cleaning_fee <= 79.0\nmse = 1289.084\nsamples = 37\nvalue = 90.324"] ;
395 -> 396 ;
397 [label="bathrooms <= 2.25\nmse = 896.488\nsamples = 23\nvalue = 78.348"] ;
396 -> 397 ;
398 [label="extra_people <= 39.5\nmse = 688.871\nsamples = 21\nvalue = 74.714"] ;
397 -> 398 ;
399 [label="mse = 141.556\nsamples = 3\nvalue = 49.333"] ;
398 -> 399 ;
400 [label="extra_people <= 52.5\nmse = 654.83\nsamples = 18\nvalue = 78.944"] ;
398 -> 400 ;
401 [label="mse = 910.025\nsamples = 9\nvalue = 89.556"] ;
400 -> 401 ;
402 [label="mse = 174.444\nsamples = 9\nvalue = 68.333"] ;
400 -> 402 ;
403 [label="mse = 1482.25\nsamples = 2\nvalue = 116.5"] ;
397 -> 403 ;
404 [label="mse = 1311.286\nsamples = 14\nvalue = 110.0"] ;
396 -> 404 ;
405 [label="mse = 1970.972\nsamples = 12\nvalue = 113.833"] ;
395 -> 405 ;
406 [label="mse = 1289.36\nsamples = 5\nvalue = 151.2"] ;
394 -> 406 ;
407 [label="mse = 14105.302\nsamples = 13\nvalue = 180.077"] ;
337 -> 407 ;
408 [label="guests_included <= 11.0\nmse = 7436.122\nsamples = 532\nvalue = 160.306"] ;
244 -> 408 ;
409 [label="extra_people <= 46.0\nmse = 7231.123\nsamples = 531\nvalue = 159.665"] ;
408 -> 409 ;
410 [label="maximum_nights <= 6.5\nmse = 7424.819\nsamples = 259\nvalue = 144.598"] ;
409 -> 410 ;
411 [label="mse = 54872.333\nsamples = 6\nvalue = 297.0"] ;
410 -> 411 ;
412 [label="accommodates <= 3.5\nmse = 5735.699\nsamples = 253\nvalue = 140.984"] ;
410 -> 412 ;
413 [label="extra_people <= 35.5\nmse = 3601.197\nsamples = 126\nvalue = 123.817"] ;
412 -> 413 ;
414 [label="security_deposit <= 345.0\nmse = 1998.481\nsamples = 76\nvalue = 108.579"] ;
413 -> 414 ;
415 [label="extra_people <= 21.5\nmse = 1729.75\nsamples = 52\nvalue = 99.519"] ;
414 -> 415 ;
416 [label="maximum_nights <= 745.0\nmse = 1166.467\nsamples = 21\nvalue = 81.095"] ;
415 -> 416 ;
417 [label="mse = 383.806\nsamples = 6\nvalue = 60.167"] ;
416 -> 417 ;
418 [label="mse = 1234.249\nsamples = 15\nvalue = 89.467"] ;
416 -> 418 ;
419 [label="minimum_nights <= 1.5\nmse = 1725.613\nsamples = 31\nvalue = 112.0"] ;
415 -> 419 ;
420 [label="mse = 762.975\nsamples = 11\nvalue = 89.455"] ;
419 -> 420 ;
421 [label="cleaning_fee <= 35.0\nmse = 1821.74\nsamples = 20\nvalue = 124.4"] ;
419 -> 421 ;
422 [label="mse = 3068.484\nsamples = 8\nvalue = 147.625"] ;
421 -> 422 ;
423 [label="mse = 391.243\nsamples = 12\nvalue = 108.917"] ;
421 -> 423 ;
424 [label="security_deposit <= 371.0\nmse = 2017.582\nsamples = 24\nvalue = 128.208"] ;
414 -> 424 ;
425 [label="mse = 162.889\nsamples = 3\nvalue = 181.333"] ;
424 -> 425 ;
426 [label="beds <= 2.5\nmse = 1821.76\nsamples = 21\nvalue = 120.619"] ;
424 -> 426 ;
427 [label="security_deposit <= 650.0\nmse = 1563.11\nsamples = 20\nvalue = 124.7"] ;
426 -> 427 ;
428 [label="extra_people <= 33.0\nmse = 1403.917\nsamples = 18\nvalue = 119.167"] ;
427 -> 428 ;
429 [label="maximum_nights <= 135.0\nmse = 1253.474\nsamples = 17\nvalue = 122.765"] ;
428 -> 429 ;
430 [label="mse = 297.837\nsamples = 7\nvalue = 144.143"] ;
429 -> 430 ;
431 [label="mse = 1378.56\nsamples = 10\nvalue = 107.8"] ;
429 -> 431 ;
432 [label="mse = 0.0\nsamples = 1\nvalue = 58.0"] ;
428 -> 432 ;
433 [label="mse = 240.25\nsamples = 2\nvalue = 174.5"] ;
427 -> 433 ;
434 [label="mse = 0.0\nsamples = 1\nvalue = 39.0"] ;
426 -> 434 ;
435 [label="cleaning_fee <= 74.0\nmse = 5147.86\nsamples = 50\nvalue = 146.98"] ;
413 -> 435 ;
436 [label="minimum_nights <= 2.5\nmse = 2171.008\nsamples = 37\nvalue = 133.73"] ;
435 -> 436 ;
437 [label="maximum_nights <= 21.5\nmse = 907.596\nsamples = 28\nvalue = 126.107"] ;
436 -> 437 ;
438 [label="mse = 487.347\nsamples = 7\nvalue = 100.714"] ;
437 -> 438 ;
439 [label="extra_people <= 42.5\nmse = 761.102\nsamples = 21\nvalue = 134.571"] ;
437 -> 439 ;
440 [label="maximum_nights <= 57.5\nmse = 624.904\nsamples = 18\nvalue = 140.611"] ;
439 -> 440 ;
441 [label="mse = 280.25\nsamples = 4\nvalue = 120.5"] ;
440 -> 441 ;
442 [label="mse = 574.801\nsamples = 14\nvalue = 146.357"] ;
440 -> 442 ;
443 [label="mse = 46.222\nsamples = 3\nvalue = 98.333"] ;
439 -> 443 ;
444 [label="mse = 5358.469\nsamples = 9\nvalue = 157.444"] ;
436 -> 444 ;
445 [label="mse = 11698.521\nsamples = 13\nvalue = 184.692"] ;
435 -> 445 ;
446 [label="minimum_nights <= 2.5\nmse = 7270.945\nsamples = 127\nvalue = 158.016"] ;
412 -> 446 ;
447 [label="security_deposit <= 404.5\nmse = 3941.983\nsamples = 73\nvalue = 142.356"] ;
446 -> 447 ;
448 [label="maximum_nights <= 18.0\nmse = 3335.676\nsamples = 60\nvalue = 133.417"] ;
447 -> 448 ;
449 [label="mse = 9198.0\nsamples = 3\nvalue = 210.0"] ;
448 -> 449 ;
450 [label="cleaning_fee <= 48.5\nmse = 2702.202\nsamples = 57\nvalue = 129.386"] ;
448 -> 450 ;
451 [label="maximum_nights <= 105.0\nmse = 2610.201\nsamples = 36\nvalue = 113.722"] ;
450 -> 451 ;
452 [label="accommodates <= 5.5\nmse = 3071.91\nsamples = 17\nvalue = 127.176"] ;
451 -> 452 ;
453 [label="mse = 1509.658\nsamples = 14\nvalue = 112.357"] ;
452 -> 453 ;
454 [label="mse = 4554.889\nsamples = 3\nvalue = 196.333"] ;
452 -> 454 ;
455 [label="accommodates <= 5.5\nmse = 1890.216\nsamples = 19\nvalue = 101.684"] ;
451 -> 455 ;
456 [label="beds <= 2.5\nmse = 1595.938\nsamples = 17\nvalue = 109.059"] ;
455 -> 456 ;
457 [label="mse = 1192.109\nsamples = 8\nvalue = 132.875"] ;
456 -> 457 ;
458 [label="mse = 1002.543\nsamples = 9\nvalue = 87.889"] ;
456 -> 458 ;
459 [label="mse = 0.0\nsamples = 2\nvalue = 39.0"] ;
455 -> 459 ;
460 [label="security_deposit <= 362.0\nmse = 1718.277\nsamples = 21\nvalue = 156.238"] ;
450 -> 460 ;
461 [label="guests_included <= 2.5\nmse = 1575.758\nsamples = 17\nvalue = 165.353"] ;
460 -> 461 ;
462 [label="mse = 1606.071\nsamples = 13\nvalue = 173.923"] ;
461 -> 462 ;
463 [label="mse = 462.75\nsamples = 4\nvalue = 137.5"] ;
461 -> 463 ;
464 [label="mse = 470.25\nsamples = 4\nvalue = 117.5"] ;
460 -> 464 ;
465 [label="mse = 4669.16\nsamples = 13\nvalue = 183.615"] ;
447 -> 465 ;
466 [label="bathrooms <= 1.75\nmse = 10991.558\nsamples = 54\nvalue = 179.185"] ;
446 -> 466 ;
467 [label="minimum_nights <= 5.5\nmse = 3789.834\nsamples = 53\nvalue = 167.472"] ;
466 -> 467 ;
468 [label="security_deposit <= 789.0\nmse = 3671.895\nsamples = 48\nvalue = 174.021"] ;
467 -> 468 ;
469 [label="minimum_nights <= 3.5\nmse = 3140.934\nsamples = 46\nvalue = 170.022"] ;
468 -> 469 ;
470 [label="security_deposit <= 190.0\nmse = 3287.774\nsamples = 33\nvalue = 179.727"] ;
469 -> 470 ;
471 [label="maximum_nights <= 17.5\nmse = 3258.514\nsamples = 23\nvalue = 194.087"] ;
470 -> 471 ;
472 [label="mse = 0.0\nsamples = 1\nvalue = 89.0"] ;
471 -> 472 ;
473 [label="guests_included <= 3.5\nmse = 2881.845\nsamples = 22\nvalue = 198.864"] ;
471 -> 473 ;
474 [label="extra_people <= 35.0\nmse = 2889.266\nsamples = 17\nvalue = 211.294"] ;
473 -> 474 ;
475 [label="mse = 2725.156\nsamples = 15\nvalue = 219.333"] ;
474 -> 475 ;
476 [label="mse = 0.0\nsamples = 2\nvalue = 151.0"] ;
474 -> 476 ;
477 [label="mse = 545.04\nsamples = 5\nvalue = 156.6"] ;
473 -> 477 ;
478 [label="mse = 1790.01\nsamples = 10\nvalue = 146.7"] ;
470 -> 478 ;
479 [label="mse = 1922.083\nsamples = 13\nvalue = 145.385"] ;
469 -> 479 ;
480 [label="mse = 7056.0\nsamples = 2\nvalue = 266.0"] ;
468 -> 480 ;
481 [label="mse = 557.44\nsamples = 5\nvalue = 104.6"] ;
467 -> 481 ;
482 [label="mse = 0.0\nsamples = 1\nvalue = 800.0"] ;
466 -> 482 ;
483 [label="minimum_nights <= 3.5\nmse = 6624.724\nsamples = 272\nvalue = 174.011"] ;
409 -> 483 ;
484 [label="security_deposit <= 550.0\nmse = 4707.934\nsamples = 244\nvalue = 166.93"] ;
483 -> 484 ;
485 [label="extra_people <= 48.5\nmse = 4289.727\nsamples = 227\nvalue = 161.559"] ;
484 -> 485 ;
486 [label="mse = 16.0\nsamples = 2\nvalue = 303.0"] ;
485 -> 486 ;
487 [label="maximum_nights <= 295.0\nmse = 4148.309\nsamples = 225\nvalue = 160.302"] ;
485 -> 487 ;
488 [label="extra_people <= 79.0\nmse = 3860.594\nsamples = 100\nvalue = 145.84"] ;
487 -> 488 ;
489 [label="maximum_nights <= 52.5\nmse = 3586.963\nsamples = 86\nvalue = 140.267"] ;
488 -> 489 ;
490 [label="cleaning_fee <= 10.0\nmse = 4280.231\nsamples = 58\nvalue = 150.362"] ;
489 -> 490 ;
491 [label="maximum_nights <= 8.5\nmse = 8236.059\nsamples = 16\nvalue = 180.062"] ;
490 -> 491 ;
492 [label="mse = 0.0\nsamples = 1\nvalue = 450.0"] ;
491 -> 492 ;
493 [label="mse = 3603.529\nsamples = 15\nvalue = 162.067"] ;
491 -> 493 ;
494 [label="cleaning_fee <= 27.5\nmse = 2309.188\nsamples = 42\nvalue = 139.048"] ;
490 -> 494 ;
495 [label="mse = 240.25\nsamples = 2\nvalue = 73.5"] ;
494 -> 495 ;
496 [label="maximum_nights <= 8.5\nmse = 2187.069\nsamples = 40\nvalue = 142.325"] ;
494 -> 496 ;
497 [label="mse = 729.918\nsamples = 7\nvalue = 113.286"] ;
496 -> 497 ;
498 [label="bathrooms <= 0.5\nmse = 2279.341\nsamples = 33\nvalue = 148.485"] ;
496 -> 498 ;
499 [label="mse = 0.0\nsamples = 1\nvalue = 66.0"] ;
498 -> 499 ;
500 [label="accommodates <= 3.5\nmse = 2131.309\nsamples = 32\nvalue = 151.062"] ;
498 -> 500 ;
501 [label="cleaning_fee <= 45.0\nmse = 2203.255\nsamples = 23\nvalue = 143.304"] ;
500 -> 501 ;
502 [label="mse = 330.188\nsamples = 4\nvalue = 116.25"] ;
501 -> 502 ;
503 [label="security_deposit <= 175.0\nmse = 2411.053\nsamples = 19\nvalue = 149.0"] ;
501 -> 503 ;
504 [label="mse = 2930.609\nsamples = 8\nvalue = 170.875"] ;
503 -> 504 ;
505 [label="mse = 1432.083\nsamples = 11\nvalue = 133.091"] ;
503 -> 505 ;
506 [label="mse = 1400.543\nsamples = 9\nvalue = 170.889"] ;
500 -> 506 ;
507 [label="maximum_nights <= 195.0\nmse = 1502.587\nsamples = 28\nvalue = 119.357"] ;
489 -> 507 ;
508 [label="guests_included <= 2.5\nmse = 1216.63\nsamples = 25\nvalue = 115.36"] ;
507 -> 508 ;
509 [label="security_deposit <= 182.5\nmse = 999.584\nsamples = 19\nvalue = 109.316"] ;
508 -> 509 ;
510 [label="mse = 655.339\nsamples = 11\nvalue = 119.545"] ;
509 -> 510 ;
511 [label="mse = 1131.188\nsamples = 8\nvalue = 95.25"] ;
509 -> 511 ;
512 [label="mse = 1421.917\nsamples = 6\nvalue = 134.5"] ;
508 -> 512 ;
513 [label="mse = 2642.889\nsamples = 3\nvalue = 152.667"] ;
507 -> 513 ;
514 [label="mse = 4178.923\nsamples = 14\nvalue = 180.071"] ;
488 -> 514 ;
515 [label="guests_included <= 2.5\nmse = 4077.296\nsamples = 125\nvalue = 171.872"] ;
487 -> 515 ;
516 [label="maximum_nights <= 432.5\nmse = 3096.148\nsamples = 101\nvalue = 164.03"] ;
515 -> 516 ;
517 [label="mse = 6688.139\nsamples = 6\nvalue = 216.833"] ;
516 -> 517 ;
518 [label="accommodates <= 3.5\nmse = 2682.065\nsamples = 95\nvalue = 160.695"] ;
516 -> 518 ;
519 [label="extra_people <= 76.5\nmse = 2409.75\nsamples = 64\nvalue = 151.484"] ;
518 -> 519 ;
520 [label="maximum_nights <= 1123.0\nmse = 2045.835\nsamples = 49\nvalue = 144.041"] ;
519 -> 520 ;
521 [label="mse = 0.0\nsamples = 1\nvalue = 58.0"] ;
520 -> 521 ;
522 [label="cleaning_fee <= 55.0\nmse = 1931.014\nsamples = 48\nvalue = 145.833"] ;
520 -> 522 ;
523 [label="cleaning_fee <= 45.0\nmse = 2069.76\nsamples = 30\nvalue = 155.8"] ;
522 -> 523 ;
524 [label="beds <= 1.5\nmse = 1866.233\nsamples = 19\nvalue = 144.632"] ;
523 -> 524 ;
525 [label="mse = 2201.653\nsamples = 11\nvalue = 133.727"] ;
524 -> 525 ;
526 [label="mse = 1016.734\nsamples = 8\nvalue = 159.625"] ;
524 -> 526 ;
527 [label="mse = 1833.719\nsamples = 11\nvalue = 175.091"] ;
523 -> 527 ;
528 [label="security_deposit <= 250.0\nmse = 1258.284\nsamples = 18\nvalue = 129.222"] ;
522 -> 528 ;
529 [label="minimum_nights <= 2.5\nmse = 567.972\nsamples = 17\nvalue = 122.706"] ;
528 -> 529 ;
530 [label="mse = 520.91\nsamples = 12\nvalue = 129.583"] ;
529 -> 530 ;
531 [label="mse = 294.96\nsamples = 5\nvalue = 106.2"] ;
529 -> 531 ;
532 [label="mse = 0.0\nsamples = 1\nvalue = 240.0"] ;
528 -> 532 ;
533 [label="mse = 2826.293\nsamples = 15\nvalue = 175.8"] ;
519 -> 533 ;
534 [label="bathrooms <= 1.25\nmse = 2707.561\nsamples = 31\nvalue = 179.71"] ;
518 -> 534 ;
535 [label="beds <= 1.5\nmse = 2372.025\nsamples = 27\nvalue = 188.778"] ;
534 -> 535 ;
536 [label="mse = 1177.25\nsamples = 4\nvalue = 243.5"] ;
535 -> 536 ;
537 [label="extra_people <= 67.5\nmse = 1968.454\nsamples = 23\nvalue = 179.261"] ;
535 -> 537 ;
538 [label="bathrooms <= 0.5\nmse = 1774.15\nsamples = 21\nvalue = 173.571"] ;
537 -> 538 ;
539 [label="mse = 0.0\nsamples = 1\nvalue = 101.0"] ;
538 -> 539 ;
540 [label="accommodates <= 5.5\nmse = 1586.36\nsamples = 20\nvalue = 177.2"] ;
538 -> 540 ;
541 [label="cleaning_fee <= 25.0\nmse = 1614.014\nsamples = 17\nvalue = 171.471"] ;
540 -> 541 ;
542 [label="mse = 1691.25\nsamples = 4\nvalue = 190.5"] ;
541 -> 542 ;
543 [label="mse = 1444.544\nsamples = 13\nvalue = 165.615"] ;
541 -> 543 ;
544 [label="mse = 189.556\nsamples = 3\nvalue = 209.667"] ;
540 -> 544 ;
545 [label="mse = 100.0\nsamples = 2\nvalue = 239.0"] ;
537 -> 545 ;
546 [label="mse = 670.75\nsamples = 4\nvalue = 118.5"] ;
534 -> 546 ;
547 [label="cleaning_fee <= 72.5\nmse = 6858.276\nsamples = 24\nvalue = 204.875"] ;
515 -> 547 ;
548 [label="mse = 3508.596\nsamples = 15\nvalue = 175.067"] ;
547 -> 548 ;
549 [label="mse = 8492.025\nsamples = 9\nvalue = 254.556"] ;
547 -> 549 ;
550 [label="cleaning_fee <= 35.0\nmse = 4763.758\nsamples = 17\nvalue = 238.647"] ;
484 -> 550 ;
551 [label="mse = 3975.421\nsamples = 11\nvalue = 267.182"] ;
550 -> 551 ;
552 [label="mse = 1979.556\nsamples = 6\nvalue = 186.333"] ;
550 -> 552 ;
553 [label="security_deposit <= 913.5\nmse = 19083.99\nsamples = 28\nvalue = 235.714"] ;
483 -> 553 ;
554 [label="extra_people <= 75.0\nmse = 16686.669\nsamples = 27\nvalue = 225.185"] ;
553 -> 554 ;
555 [label="accommodates <= 2.5\nmse = 15616.027\nsamples = 20\nvalue = 207.15"] ;
554 -> 555 ;
556 [label="mse = 1192.889\nsamples = 6\nvalue = 121.667"] ;
555 -> 556 ;
557 [label="mse = 17323.454\nsamples = 14\nvalue = 243.786"] ;
555 -> 557 ;
558 [label="mse = 16161.061\nsamples = 7\nvalue = 276.714"] ;
554 -> 558 ;
559 [label="mse = 0.0\nsamples = 1\nvalue = 520.0"] ;
553 -> 559 ;
560 [label="mse = 0.0\nsamples = 1\nvalue = 501.0"] ;
408 -> 560 ;
561 [label="beds <= 3.5\nmse = 37584.911\nsamples = 194\nvalue = 200.149"] ;
5 -> 561 ;
562 [label="cleaning_fee <= 9.5\nmse = 41147.332\nsamples = 170\nvalue = 212.488"] ;
561 -> 562 ;
563 [label="extra_people <= 884.0\nmse = 67221.249\nsamples = 78\nvalue = 253.141"] ;
562 -> 563 ;
564 [label="beds <= 1.5\nmse = 71984.621\nsamples = 70\nvalue = 270.329"] ;
563 -> 564 ;
565 [label="accommodates <= 1.5\nmse = 135016.725\nsamples = 29\nvalue = 333.414"] ;
564 -> 565 ;
566 [label="mse = 12800.234\nsamples = 8\nvalue = 156.625"] ;
565 -> 566 ;
567 [label="minimum_nights <= 1.5\nmse = 165133.229\nsamples = 21\nvalue = 400.762"] ;
565 -> 567 ;
568 [label="mse = 333789.388\nsamples = 7\nvalue = 601.571"] ;
567 -> 568 ;
569 [label="mse = 50561.801\nsamples = 14\nvalue = 300.357"] ;
567 -> 569 ;
570 [label="guests_included <= 1.5\nmse = 22594.939\nsamples = 41\nvalue = 225.707"] ;
564 -> 570 ;
571 [label="security_deposit <= 225.0\nmse = 3379.754\nsamples = 22\nvalue = 145.864"] ;
570 -> 571 ;
572 [label="extra_people <= 120.0\nmse = 2180.936\nsamples = 19\nvalue = 132.105"] ;
571 -> 572 ;
573 [label="mse = 764.417\nsamples = 12\nvalue = 113.5"] ;
572 -> 573 ;
574 [label="mse = 2998.571\nsamples = 7\nvalue = 164.0"] ;
572 -> 574 ;
575 [label="mse = 2180.667\nsamples = 3\nvalue = 233.0"] ;
571 -> 575 ;
576 [label="extra_people <= 172.0\nmse = 28915.396\nsamples = 19\nvalue = 318.158"] ;
570 -> 576 ;
577 [label="minimum_nights <= 2.5\nmse = 20939.204\nsamples = 17\nvalue = 283.824"] ;
576 -> 577 ;
578 [label="mse = 3164.408\nsamples = 7\nvalue = 189.143"] ;
577 -> 578 ;
579 [label="mse = 22713.89\nsamples = 10\nvalue = 350.1"] ;
577 -> 579 ;
580 [label="mse = 1521.0\nsamples = 2\nvalue = 610.0"] ;
576 -> 580 ;
581 [label="mse = 339.438\nsamples = 8\nvalue = 102.75"] ;
563 -> 581 ;
582 [label="guests_included <= 1.5\nmse = 16452.086\nsamples = 92\nvalue = 178.022"] ;
562 -> 582 ;
583 [label="minimum_nights <= 1.5\nmse = 19820.344\nsamples = 41\nvalue = 150.561"] ;
582 -> 583 ;
584 [label="extra_people <= 119.5\nmse = 3165.222\nsamples = 24\nvalue = 124.833"] ;
583 -> 584 ;
585 [label="mse = 1968.74\nsamples = 14\nvalue = 99.214"] ;
584 -> 585 ;
586 [label="mse = 2635.01\nsamples = 10\nvalue = 160.7"] ;
584 -> 586 ;
587 [label="minimum_nights <= 2.5\nmse = 41079.751\nsamples = 17\nvalue = 186.882"] ;
583 -> 587 ;
588 [label="mse = 94306.667\nsamples = 6\nvalue = 303.0"] ;
587 -> 588 ;
589 [label="mse = 680.793\nsamples = 11\nvalue = 123.545"] ;
587 -> 589 ;
590 [label="security_deposit <= 389.0\nmse = 12650.677\nsamples = 51\nvalue = 200.098"] ;
582 -> 590 ;
591 [label="guests_included <= 2.5\nmse = 22003.333\nsamples = 18\nvalue = 259.667"] ;
590 -> 591 ;
592 [label="mse = 9044.923\nsamples = 14\nvalue = 212.929"] ;
591 -> 592 ;
593 [label="mse = 32952.688\nsamples = 4\nvalue = 423.25"] ;
591 -> 593 ;
594 [label="minimum_nights <= 3.5\nmse = 4557.996\nsamples = 33\nvalue = 167.606"] ;
590 -> 594 ;
595 [label="maximum_nights <= 22.5\nmse = 2697.391\nsamples = 23\nvalue = 185.0"] ;
594 -> 595 ;
596 [label="mse = 122.889\nsamples = 3\nvalue = 138.333"] ;
595 -> 596 ;
597 [label="minimum_nights <= 1.5\nmse = 2707.9\nsamples = 20\nvalue = 192.0"] ;
595 -> 597 ;
598 [label="mse = 3974.98\nsamples = 7\nvalue = 223.143"] ;
597 -> 598 ;
599 [label="mse = 1222.178\nsamples = 13\nvalue = 175.231"] ;
597 -> 599 ;
600 [label="mse = 6541.04\nsamples = 10\nvalue = 127.6"] ;
594 -> 600 ;
601 [label="maximum_nights <= 745.0\nmse = 3634.021\nsamples = 24\nvalue = 112.75"] ;
561 -> 601 ;
602 [label="mse = 2379.182\nsamples = 15\nvalue = 83.467"] ;
601 -> 602 ;
603 [label="mse = 1914.247\nsamples = 9\nvalue = 161.556"] ;
601 -> 603 ;
604 [label="maximum_nights <= 1.5\nmse = 26661.251\nsamples = 3264\nvalue = 205.322"] ;
4 -> 604 ;
605 [label="mse = 0.0\nsamples = 1\nvalue = 2501.0"] ;
604 -> 605 ;
606 [label="maximum_nights <= 27.5\nmse = 25053.807\nsamples = 3263\nvalue = 204.618"] ;
604 -> 606 ;
607 [label="security_deposit <= 738.5\nmse = 102862.339\nsamples = 343\nvalue = 254.665"] ;
606 -> 607 ;
608 [label="cleaning_fee <= 125.0\nmse = 37610.999\nsamples = 284\nvalue = 233.225"] ;
607 -> 608 ;
609 [label="cleaning_fee <= 98.5\nmse = 14592.49\nsamples = 125\nvalue = 198.08"] ;
608 -> 609 ;
610 [label="mse = 65807.139\nsamples = 6\nvalue = 349.833"] ;
609 -> 610 ;
611 [label="extra_people <= 240.0\nmse = 10790.564\nsamples = 119\nvalue = 190.429"] ;
609 -> 611 ;
612 [label="minimum_nights <= 8.5\nmse = 10057.67\nsamples = 118\nvalue = 187.797"] ;
611 -> 612 ;
613 [label="security_deposit <= 525.0\nmse = 9303.428\nsamples = 117\nvalue = 185.128"] ;
612 -> 613 ;
614 [label="accommodates <= 2.5\nmse = 8308.423\nsamples = 111\nvalue = 179.658"] ;
613 -> 614 ;
615 [label="security_deposit <= 150.0\nmse = 3286.376\nsamples = 47\nvalue = 144.085"] ;
614 -> 615 ;
616 [label="cleaning_fee <= 116.0\nmse = 3831.455\nsamples = 31\nvalue = 157.645"] ;
615 -> 616 ;
617 [label="accommodates <= 1.5\nmse = 2782.947\nsamples = 26\nvalue = 146.769"] ;
616 -> 617 ;
618 [label="mse = 602.75\nsamples = 4\nvalue = 110.5"] ;
617 -> 618 ;
619 [label="bathrooms <= 1.25\nmse = 2896.686\nsamples = 22\nvalue = 153.364"] ;
617 -> 619 ;
620 [label="extra_people <= 87.5\nmse = 2133.778\nsamples = 18\nvalue = 144.333"] ;
619 -> 620 ;
621 [label="mse = 1451.787\nsamples = 13\nvalue = 134.462"] ;
620 -> 621 ;
622 [label="mse = 2994.8\nsamples = 5\nvalue = 170.0"] ;
620 -> 622 ;
623 [label="mse = 4311.5\nsamples = 4\nvalue = 194.0"] ;
619 -> 623 ;
624 [label="mse = 5470.16\nsamples = 5\nvalue = 214.2"] ;
616 -> 624 ;
625 [label="bathrooms <= 1.5\nmse = 1183.777\nsamples = 16\nvalue = 117.812"] ;
615 -> 625 ;
626 [label="mse = 1165.785\nsamples = 11\nvalue = 105.818"] ;
625 -> 626 ;
627 [label="mse = 210.56\nsamples = 5\nvalue = 144.2"] ;
625 -> 627 ;
628 [label="extra_people <= 140.0\nmse = 10384.765\nsamples = 64\nvalue = 205.781"] ;
614 -> 628 ;
629 [label="beds <= 1.5\nmse = 9244.555\nsamples = 62\nvalue = 200.161"] ;
628 -> 629 ;
630 [label="extra_people <= 65.0\nmse = 2699.109\nsamples = 16\nvalue = 154.875"] ;
629 -> 630 ;
631 [label="mse = 2221.358\nsamples = 9\nvalue = 130.556"] ;
630 -> 631 ;
632 [label="mse = 1575.265\nsamples = 7\nvalue = 186.143"] ;
630 -> 632 ;
633 [label="security_deposit <= 352.5\nmse = 10559.775\nsamples = 46\nvalue = 215.913"] ;
629 -> 633 ;
634 [label="guests_included <= 5.0\nmse = 6274.512\nsamples = 33\nvalue = 192.182"] ;
633 -> 634 ;
635 [label="maximum_nights <= 9.5\nmse = 5678.077\nsamples = 32\nvalue = 187.281"] ;
634 -> 635 ;
636 [label="mse = 860.204\nsamples = 7\nvalue = 146.714"] ;
635 -> 636 ;
637 [label="minimum_nights <= 1.5\nmse = 6437.27\nsamples = 25\nvalue = 198.64"] ;
635 -> 637 ;
638 [label="mse = 6772.8\nsamples = 5\nvalue = 248.0"] ;
637 -> 638 ;
639 [label="cleaning_fee <= 117.5\nmse = 5592.01\nsamples = 20\nvalue = 186.3"] ;
637 -> 639 ;
640 [label="mse = 3356.0\nsamples = 12\nvalue = 161.0"] ;
639 -> 640 ;
641 [label="mse = 6545.688\nsamples = 8\nvalue = 224.25"] ;
639 -> 641 ;
642 [label="mse = 0.0\nsamples = 1\nvalue = 349.0"] ;
634 -> 642 ;
643 [label="mse = 16379.207\nsamples = 13\nvalue = 276.154"] ;
633 -> 643 ;
644 [label="mse = 14400.0\nsamples = 2\nvalue = 380.0"] ;
628 -> 644 ;
645 [label="mse = 16914.889\nsamples = 6\nvalue = 286.333"] ;
613 -> 645 ;
646 [label="mse = 0.0\nsamples = 1\nvalue = 500.0"] ;
612 -> 646 ;
647 [label="mse = 0.0\nsamples = 1\nvalue = 501.0"] ;
611 -> 647 ;
648 [label="maximum_nights <= 24.5\nmse = 53972.828\nsamples = 159\nvalue = 260.855"] ;
608 -> 648 ;
649 [label="security_deposit <= 155.5\nmse = 36521.303\nsamples = 149\nvalue = 251.839"] ;
648 -> 649 ;
650 [label="cleaning_fee <= 144.5\nmse = 50059.249\nsamples = 84\nvalue = 281.964"] ;
649 -> 650 ;
651 [label="maximum_nights <= 15.5\nmse = 142823.309\nsamples = 16\nvalue = 411.938"] ;
650 -> 651 ;
652 [label="mse = 17426.413\nsamples = 11\nvalue = 285.364"] ;
651 -> 652 ;
653 [label="mse = 305909.04\nsamples = 5\nvalue = 690.4"] ;
651 -> 653 ;
654 [label="accommodates <= 3.5\nmse = 23322.324\nsamples = 68\nvalue = 251.382"] ;
650 -> 654 ;
655 [label="guests_included <= 1.5\nmse = 8880.902\nsamples = 41\nvalue = 217.024"] ;
654 -> 655 ;
656 [label="minimum_nights <= 1.5\nmse = 9925.857\nsamples = 29\nvalue = 235.931"] ;
655 -> 656 ;
657 [label="mse = 18213.25\nsamples = 6\nvalue = 303.5"] ;
656 -> 657 ;
658 [label="cleaning_fee <= 160.0\nmse = 6262.212\nsamples = 23\nvalue = 218.304"] ;
656 -> 658 ;
659 [label="bathrooms <= 1.5\nmse = 7476.109\nsamples = 16\nvalue = 231.625"] ;
658 -> 659 ;
660 [label="mse = 9234.41\nsamples = 10\nvalue = 252.3"] ;
659 -> 660 ;
661 [label="mse = 2645.806\nsamples = 6\nvalue = 197.167"] ;
659 -> 661 ;
662 [label="mse = 2154.98\nsamples = 7\nvalue = 187.857"] ;
658 -> 662 ;
663 [label="mse = 3404.056\nsamples = 12\nvalue = 171.333"] ;
655 -> 663 ;
664 [label="beds <= 2.5\nmse = 40737.284\nsamples = 27\nvalue = 303.556"] ;
654 -> 664 ;
665 [label="minimum_nights <= 1.5\nmse = 51878.131\nsamples = 17\nvalue = 358.529"] ;
664 -> 665 ;
666 [label="mse = 0.0\nsamples = 1\nvalue = 151.0"] ;
665 -> 666 ;
667 [label="maximum_nights <= 9.5\nmse = 52260.5\nsamples = 16\nvalue = 371.5"] ;
665 -> 667 ;
668 [label="mse = 13347.0\nsamples = 4\nvalue = 278.0"] ;
667 -> 668 ;
669 [label="mse = 61346.222\nsamples = 12\nvalue = 402.667"] ;
667 -> 669 ;
670 [label="mse = 7926.29\nsamples = 10\nvalue = 210.1"] ;
664 -> 670 ;
671 [label="guests_included <= 3.5\nmse = 16337.653\nsamples = 65\nvalue = 212.908"] ;
649 -> 671 ;
672 [label="cleaning_fee <= 175.0\nmse = 14202.788\nsamples = 64\nvalue = 206.844"] ;
671 -> 672 ;
673 [label="extra_people <= 18.5\nmse = 7713.796\nsamples = 49\nvalue = 190.0"] ;
672 -> 673 ;
674 [label="minimum_nights <= 1.5\nmse = 10664.652\nsamples = 16\nvalue = 232.188"] ;
673 -> 674 ;
675 [label="mse = 1225.0\nsamples = 2\nvalue = 85.0"] ;
674 -> 675 ;
676 [label="mse = 8476.168\nsamples = 14\nvalue = 253.214"] ;
674 -> 676 ;
677 [label="extra_people <= 46.5\nmse = 5001.763\nsamples = 33\nvalue = 169.545"] ;
673 -> 677 ;
678 [label="mse = 724.828\nsamples = 13\nvalue = 135.308"] ;
677 -> 678 ;
679 [label="maximum_nights <= 17.5\nmse = 6524.56\nsamples = 20\nvalue = 191.8"] ;
677 -> 679 ;
680 [label="mse = 7410.356\nsamples = 15\nvalue = 208.667"] ;
679 -> 680 ;
681 [label="mse = 453.36\nsamples = 5\nvalue = 141.2"] ;
679 -> 681 ;
682 [label="mse = 31445.849\nsamples = 15\nvalue = 261.867"] ;
672 -> 682 ;
683 [label="mse = 0.0\nsamples = 1\nvalue = 601.0"] ;
671 -> 683 ;
684 [label="mse = 294740.76\nsamples = 10\nvalue = 395.2"] ;
648 -> 684 ;
685 [label="guests_included <= 2.5\nmse = 404090.829\nsamples = 59\nvalue = 357.864"] ;
607 -> 685 ;
686 [label="extra_people <= 9.5\nmse = 33412.649\nsamples = 55\nvalue = 276.073"] ;
685 -> 686 ;
687 [label="security_deposit <= 788.5\nmse = 55565.745\nsamples = 19\nvalue = 409.789"] ;
686 -> 687 ;
688 [label="mse = 0.0\nsamples = 1\nvalue = 1165.0"] ;
687 -> 688 ;
689 [label="cleaning_fee <= 135.0\nmse = 25206.694\nsamples = 18\nvalue = 367.833"] ;
687 -> 689 ;
690 [label="mse = 7512.0\nsamples = 3\nvalue = 216.0"] ;
689 -> 690 ;
691 [label="mse = 23212.827\nsamples = 15\nvalue = 398.2"] ;
689 -> 691 ;
692 [label="bathrooms <= 2.25\nmse = 7303.472\nsamples = 36\nvalue = 205.5"] ;
686 -> 692 ;
693 [label="cleaning_fee <= 235.5\nmse = 4004.119\nsamples = 35\nvalue = 195.629"] ;
692 -> 693 ;
694 [label="cleaning_fee <= 98.5\nmse = 3227.277\nsamples = 29\nvalue = 179.414"] ;
693 -> 694 ;
695 [label="mse = 0.0\nsamples = 1\nvalue = 326.0"] ;
694 -> 695 ;
696 [label="extra_people <= 90.0\nmse = 2547.718\nsamples = 28\nvalue = 174.179"] ;
694 -> 696 ;
697 [label="cleaning_fee <= 130.0\nmse = 2397.558\nsamples = 23\nvalue = 184.913"] ;
696 -> 697 ;
698 [label="mse = 1189.802\nsamples = 9\nvalue = 147.444"] ;
697 -> 698 ;
699 [label="mse = 1691.286\nsamples = 14\nvalue = 209.0"] ;
697 -> 699 ;
700 [label="mse = 270.16\nsamples = 5\nvalue = 124.8"] ;
696 -> 700 ;
701 [label="mse = 346.0\nsamples = 6\nvalue = 274.0"] ;
693 -> 701 ;
702 [label="mse = 0.0\nsamples = 1\nvalue = 551.0"] ;
692 -> 702 ;
703 [label="mse = 4144124.75\nsamples = 4\nvalue = 1482.5"] ;
685 -> 703 ;
704 [label="extra_people <= 95.5\nmse = 15585.201\nsamples = 2920\nvalue = 198.74"] ;
606 -> 704 ;
705 [label="extra_people <= 13.0\nmse = 12153.419\nsamples = 2544\nvalue = 191.768"] ;
704 -> 705 ;
706 [label="maximum_nights <= 1124.5\nmse = 18198.893\nsamples = 1133\nvalue = 210.915"] ;
705 -> 706 ;
707 [label="maximum_nights <= 725.0\nmse = 16242.254\nsamples = 551\nvalue = 188.379"] ;
706 -> 707 ;
708 [label="cleaning_fee <= 142.5\nmse = 16626.135\nsamples = 456\nvalue = 209.572"] ;
707 -> 708 ;
709 [label="security_deposit <= 763.5\nmse = 6224.997\nsamples = 172\nvalue = 180.709"] ;
708 -> 709 ;
710 [label="cleaning_fee <= 118.0\nmse = 5843.253\nsamples = 154\nvalue = 175.688"] ;
709 -> 710 ;
711 [label="accommodates <= 2.5\nmse = 4261.81\nsamples = 69\nvalue = 161.957"] ;
710 -> 711 ;
712 [label="bathrooms <= 1.25\nmse = 3734.478\nsamples = 34\nvalue = 142.147"] ;
711 -> 712 ;
713 [label="cleaning_fee <= 100.5\nmse = 3564.999\nsamples = 33\nvalue = 145.03"] ;
712 -> 713 ;
714 [label="guests_included <= 1.5\nmse = 2575.062\nsamples = 27\nvalue = 138.111"] ;
713 -> 714 ;
715 [label="cleaning_fee <= 98.5\nmse = 1774.36\nsamples = 20\nvalue = 128.8"] ;
714 -> 715 ;
716 [label="mse = 0.0\nsamples = 1\nvalue = 229.0"] ;
715 -> 716 ;
717 [label="security_deposit <= 575.0\nmse = 1311.512\nsamples = 19\nvalue = 123.526"] ;
715 -> 717 ;
718 [label="security_deposit <= 387.0\nmse = 1216.361\nsamples = 18\nvalue = 126.5"] ;
717 -> 718 ;
719 [label="mse = 701.41\nsamples = 10\nvalue = 113.7"] ;
718 -> 719 ;
720 [label="mse = 1399.25\nsamples = 8\nvalue = 142.5"] ;
718 -> 720 ;
721 [label="mse = 0.0\nsamples = 1\nvalue = 70.0"] ;
717 -> 721 ;
722 [label="mse = 3907.347\nsamples = 7\nvalue = 164.714"] ;
714 -> 722 ;
723 [label="mse = 6834.806\nsamples = 6\nvalue = 176.167"] ;
713 -> 723 ;
724 [label="mse = 0.0\nsamples = 1\nvalue = 47.0"] ;
712 -> 724 ;
725 [label="security_deposit <= 396.5\nmse = 4022.56\nsamples = 35\nvalue = 181.2"] ;
711 -> 725 ;
726 [label="beds <= 3.5\nmse = 2444.31\nsamples = 20\nvalue = 161.3"] ;
725 -> 726 ;
727 [label="maximum_nights <= 227.5\nmse = 2319.484\nsamples = 16\nvalue = 171.125"] ;
726 -> 727 ;
728 [label="mse = 2156.388\nsamples = 14\nvalue = 163.429"] ;
727 -> 728 ;
729 [label="mse = 144.0\nsamples = 2\nvalue = 225.0"] ;
727 -> 729 ;
730 [label="mse = 1013.0\nsamples = 4\nvalue = 122.0"] ;
726 -> 730 ;
731 [label="mse = 4894.862\nsamples = 15\nvalue = 207.733"] ;
725 -> 731 ;
732 [label="bedrooms <= 0.5\nmse = 6849.691\nsamples = 85\nvalue = 186.835"] ;
710 -> 732 ;
733 [label="mse = 7815.98\nsamples = 14\nvalue = 238.857"] ;
732 -> 733 ;
734 [label="minimum_nights <= 2.5\nmse = 6020.3\nsamples = 71\nvalue = 176.577"] ;
732 -> 734 ;
735 [label="bathrooms <= 1.25\nmse = 7366.359\nsamples = 35\nvalue = 197.429"] ;
734 -> 735 ;
736 [label="cleaning_fee <= 126.0\nmse = 3771.289\nsamples = 30\nvalue = 185.667"] ;
735 -> 736 ;
737 [label="bathrooms <= 0.75\nmse = 3359.26\nsamples = 20\nvalue = 204.2"] ;
736 -> 737 ;
738 [label="mse = 0.0\nsamples = 1\nvalue = 105.0"] ;
737 -> 738 ;
739 [label="maximum_nights <= 29.5\nmse = 2990.875\nsamples = 19\nvalue = 209.421"] ;
737 -> 739 ;
740 [label="mse = 0.0\nsamples = 1\nvalue = 120.0"] ;
739 -> 740 ;
741 [label="minimum_nights <= 1.5\nmse = 2688.127\nsamples = 18\nvalue = 214.389"] ;
739 -> 741 ;
742 [label="mse = 1753.556\nsamples = 3\nvalue = 165.333"] ;
741 -> 742 ;
743 [label="mse = 2297.493\nsamples = 15\nvalue = 224.2"] ;
741 -> 743 ;
744 [label="mse = 2534.44\nsamples = 10\nvalue = 148.6"] ;
736 -> 744 ;
745 [label="mse = 23126.4\nsamples = 5\nvalue = 268.0"] ;
735 -> 745 ;
746 [label="maximum_nights <= 42.5\nmse = 3877.99\nsamples = 36\nvalue = 156.306"] ;
734 -> 746 ;
747 [label="mse = 2777.0\nsamples = 6\nvalue = 108.0"] ;
746 -> 747 ;
748 [label="cleaning_fee <= 121.0\nmse = 3538.166\nsamples = 30\nvalue = 165.967"] ;
746 -> 748 ;
749 [label="mse = 4602.388\nsamples = 14\nvalue = 185.571"] ;
748 -> 749 ;
750 [label="security_deposit <= 450.0\nmse = 1976.402\nsamples = 16\nvalue = 148.812"] ;
748 -> 750 ;
751 [label="mse = 919.243\nsamples = 12\nvalue = 129.417"] ;
750 -> 751 ;
752 [label="mse = 633.5\nsamples = 4\nvalue = 207.0"] ;
750 -> 752 ;
753 [label="maximum_nights <= 45.0\nmse = 7430.0\nsamples = 18\nvalue = 223.667"] ;
709 -> 753 ;
754 [label="mse = 978.56\nsamples = 5\nvalue = 137.2"] ;
753 -> 754 ;
755 [label="mse = 5929.763\nsamples = 13\nvalue = 256.923"] ;
753 -> 755 ;
756 [label="maximum_nights <= 95.0\nmse = 22115.311\nsamples = 284\nvalue = 227.053"] ;
708 -> 756 ;
757 [label="accommodates <= 2.5\nmse = 24877.932\nsamples = 227\nvalue = 239.665"] ;
756 -> 757 ;
758 [label="bathrooms <= 1.25\nmse = 14366.475\nsamples = 103\nvalue = 204.757"] ;
757 -> 758 ;
759 [label="security_deposit <= 1408.0\nmse = 9560.88\nsamples = 92\nvalue = 191.511"] ;
758 -> 759 ;
760 [label="minimum_nights <= 6.5\nmse = 8979.881\nsamples = 89\nvalue = 187.404"] ;
759 -> 760 ;
761 [label="minimum_nights <= 3.5\nmse = 9223.109\nsamples = 81\nvalue = 193.951"] ;
760 -> 761 ;
762 [label="cleaning_fee <= 152.0\nmse = 3803.838\nsamples = 65\nvalue = 178.092"] ;
761 -> 762 ;
763 [label="maximum_nights <= 55.0\nmse = 1503.934\nsamples = 34\nvalue = 152.353"] ;
762 -> 763 ;
764 [label="cleaning_fee <= 147.5\nmse = 1305.734\nsamples = 16\nvalue = 127.625"] ;
763 -> 764 ;
765 [label="mse = 0.0\nsamples = 1\nvalue = 217.0"] ;
764 -> 765 ;
766 [label="mse = 824.756\nsamples = 15\nvalue = 121.667"] ;
764 -> 766 ;
767 [label="beds <= 1.5\nmse = 653.444\nsamples = 18\nvalue = 174.333"] ;
763 -> 767 ;
768 [label="mse = 462.286\nsamples = 14\nvalue = 180.0"] ;
767 -> 768 ;
769 [label="mse = 816.75\nsamples = 4\nvalue = 154.5"] ;
767 -> 769 ;
770 [label="cleaning_fee <= 157.5\nmse = 4802.735\nsamples = 31\nvalue = 206.323"] ;
762 -> 770 ;
771 [label="mse = 1920.667\nsamples = 3\nvalue = 290.0"] ;
770 -> 771 ;
772 [label="security_deposit <= 775.0\nmse = 4280.944\nsamples = 28\nvalue = 197.357"] ;
770 -> 772 ;
773 [label="maximum_nights <= 29.5\nmse = 2014.386\nsamples = 23\nvalue = 184.304"] ;
772 -> 773 ;
774 [label="mse = 90.25\nsamples = 2\nvalue = 110.5"] ;
773 -> 774 ;
775 [label="cleaning_fee <= 400.0\nmse = 1629.46\nsamples = 21\nvalue = 191.333"] ;
773 -> 775 ;
776 [label="cleaning_fee <= 192.0\nmse = 1355.048\nsamples = 20\nvalue = 195.45"] ;
775 -> 776 ;
777 [label="mse = 295.289\nsamples = 11\nvalue = 174.273"] ;
776 -> 777 ;
778 [label="mse = 1432.222\nsamples = 9\nvalue = 221.333"] ;
776 -> 778 ;
779 [label="mse = 0.0\nsamples = 1\nvalue = 109.0"] ;
775 -> 779 ;
780 [label="mse = 10318.24\nsamples = 5\nvalue = 257.4"] ;
772 -> 780 ;
781 [label="maximum_nights <= 45.0\nmse = 26066.734\nsamples = 16\nvalue = 258.375"] ;
761 -> 781 ;
782 [label="mse = 33491.44\nsamples = 10\nvalue = 307.4"] ;
781 -> 782 ;
783 [label="mse = 3010.222\nsamples = 6\nvalue = 176.667"] ;
781 -> 783 ;
784 [label="mse = 1690.359\nsamples = 8\nvalue = 121.125"] ;
760 -> 784 ;
785 [label="mse = 11456.222\nsamples = 3\nvalue = 313.333"] ;
759 -> 785 ;
786 [label="mse = 40817.157\nsamples = 11\nvalue = 315.545"] ;
758 -> 786 ;
787 [label="security_deposit <= 551.0\nmse = 31756.256\nsamples = 124\nvalue = 268.661"] ;
757 -> 787 ;
788 [label="bathrooms <= 1.75\nmse = 9327.562\nsamples = 100\nvalue = 254.59"] ;
787 -> 788 ;
789 [label="security_deposit <= 384.0\nmse = 8127.076\nsamples = 93\nvalue = 248.613"] ;
788 -> 789 ;
790 [label="security_deposit <= 190.0\nmse = 9425.107\nsamples = 63\nvalue = 263.81"] ;
789 -> 790 ;
791 [label="accommodates <= 4.5\nmse = 7746.727\nsamples = 62\nvalue = 258.419"] ;
790 -> 791 ;
792 [label="maximum_nights <= 35.0\nmse = 7314.046\nsamples = 56\nvalue = 250.911"] ;
791 -> 792 ;
793 [label="cleaning_fee <= 157.5\nmse = 11899.89\nsamples = 20\nvalue = 275.1"] ;
792 -> 793 ;
794 [label="mse = 4940.515\nsamples = 14\nvalue = 256.357"] ;
793 -> 794 ;
795 [label="mse = 25406.139\nsamples = 6\nvalue = 318.833"] ;
793 -> 795 ;
796 [label="guests_included <= 2.5\nmse = 4260.694\nsamples = 36\nvalue = 237.472"] ;
792 -> 796 ;
797 [label="mse = 4645.076\nsamples = 12\nvalue = 208.917"] ;
796 -> 797 ;
798 [label="guests_included <= 3.5\nmse = 3456.938\nsamples = 24\nvalue = 251.75"] ;
796 -> 798 ;
799 [label="mse = 1664.85\nsamples = 10\nvalue = 282.5"] ;
798 -> 799 ;
800 [label="mse = 3579.168\nsamples = 14\nvalue = 229.786"] ;
798 -> 800 ;
801 [label="mse = 6347.583\nsamples = 6\nvalue = 328.5"] ;
791 -> 801 ;
802 [label="mse = 0.0\nsamples = 1\nvalue = 598.0"] ;
790 -> 802 ;
803 [label="maximum_nights <= 45.5\nmse = 3897.81\nsamples = 30\nvalue = 216.7"] ;
789 -> 803 ;
804 [label="mse = 3163.174\nsamples = 11\nvalue = 178.091"] ;
803 -> 804 ;
805 [label="guests_included <= 3.5\nmse = 2960.471\nsamples = 19\nvalue = 239.053"] ;
803 -> 805 ;
806 [label="bedrooms <= 0.5\nmse = 2549.58\nsamples = 18\nvalue = 244.556"] ;
805 -> 806 ;
807 [label="mse = 2550.25\nsamples = 2\nvalue = 299.5"] ;
806 -> 807 ;
808 [label="minimum_nights <= 5.5\nmse = 2124.965\nsamples = 16\nvalue = 237.688"] ;
806 -> 808 ;
809 [label="mse = 2283.917\nsamples = 13\nvalue = 231.923"] ;
808 -> 809 ;
810 [label="mse = 668.222\nsamples = 3\nvalue = 262.667"] ;
808 -> 810 ;
811 [label="mse = 0.0\nsamples = 1\nvalue = 140.0"] ;
805 -> 811 ;
812 [label="mse = 18496.286\nsamples = 7\nvalue = 334.0"] ;
788 -> 812 ;
813 [label="security_deposit <= 616.0\nmse = 120946.623\nsamples = 24\nvalue = 327.292"] ;
787 -> 813 ;
814 [label="mse = 0.0\nsamples = 1\nvalue = 1861.0"] ;
813 -> 814 ;
815 [label="bedrooms <= 0.5\nmse = 19486.325\nsamples = 23\nvalue = 260.609"] ;
813 -> 815 ;
816 [label="mse = 1429.25\nsamples = 4\nvalue = 151.5"] ;
815 -> 816 ;
817 [label="guests_included <= 1.5\nmse = 20253.928\nsamples = 19\nvalue = 283.579"] ;
815 -> 817 ;
818 [label="mse = 24421.347\nsamples = 14\nvalue = 310.286"] ;
817 -> 818 ;
819 [label="mse = 996.16\nsamples = 5\nvalue = 208.8"] ;
817 -> 819 ;
820 [label="cleaning_fee <= 275.0\nmse = 7956.917\nsamples = 57\nvalue = 176.825"] ;
756 -> 820 ;
821 [label="minimum_nights <= 20.0\nmse = 5054.849\nsamples = 54\nvalue = 167.241"] ;
820 -> 821 ;
822 [label="security_deposit <= 125.0\nmse = 4388.576\nsamples = 50\nvalue = 175.94"] ;
821 -> 822 ;
823 [label="minimum_nights <= 4.5\nmse = 4108.848\nsamples = 19\nvalue = 216.684"] ;
822 -> 823 ;
824 [label="bedrooms <= 0.5\nmse = 3600.09\nsamples = 16\nvalue = 229.688"] ;
823 -> 824 ;
825 [label="mse = 0.0\nsamples = 1\nvalue = 136.0"] ;
824 -> 825 ;
826 [label="mse = 3215.929\nsamples = 15\nvalue = 235.933"] ;
824 -> 826 ;
827 [label="mse = 1110.889\nsamples = 3\nvalue = 147.333"] ;
823 -> 827 ;
828 [label="beds <= 2.5\nmse = 2918.934\nsamples = 31\nvalue = 150.968"] ;
822 -> 828 ;
829 [label="security_deposit <= 750.0\nmse = 2796.832\nsamples = 24\nvalue = 163.792"] ;
828 -> 829 ;
830 [label="minimum_nights <= 1.5\nmse = 2636.46\nsamples = 18\nvalue = 177.611"] ;
829 -> 830 ;
831 [label="mse = 56.889\nsamples = 3\nvalue = 102.333"] ;
830 -> 831 ;
832 [label="mse = 1792.356\nsamples = 15\nvalue = 192.667"] ;
830 -> 832 ;
833 [label="mse = 986.222\nsamples = 6\nvalue = 122.333"] ;
829 -> 833 ;
834 [label="mse = 840.571\nsamples = 7\nvalue = 107.0"] ;
828 -> 834 ;
835 [label="mse = 612.75\nsamples = 4\nvalue = 58.5"] ;
821 -> 835 ;
836 [label="mse = 28781.556\nsamples = 3\nvalue = 349.333"] ;
820 -> 836 ;
837 [label="maximum_nights <= 815.0\nmse = 1895.406\nsamples = 95\nvalue = 86.653"] ;
707 -> 837 ;
838 [label="cleaning_fee <= 165.0\nmse = 454.068\nsamples = 85\nvalue = 75.247"] ;
837 -> 838 ;
839 [label="accommodates <= 2.5\nmse = 528.53\nsamples = 61\nvalue = 72.623"] ;
838 -> 839 ;
840 [label="mse = 1371.471\nsamples = 11\nvalue = 83.273"] ;
839 -> 840 ;
841 [label="accommodates <= 3.5\nmse = 312.642\nsamples = 50\nvalue = 70.28"] ;
839 -> 841 ;
842 [label="bathrooms <= 1.5\nmse = 324.006\nsamples = 30\nvalue = 66.833"] ;
841 -> 842 ;
843 [label="minimum_nights <= 2.5\nmse = 328.019\nsamples = 29\nvalue = 66.345"] ;
842 -> 843 ;
844 [label="mse = 352.307\nsamples = 27\nvalue = 66.37"] ;
843 -> 844 ;
845 [label="mse = 0.0\nsamples = 2\nvalue = 66.0"] ;
843 -> 845 ;
846 [label="mse = 0.0\nsamples = 1\nvalue = 81.0"] ;
842 -> 846 ;
847 [label="accommodates <= 4.5\nmse = 251.047\nsamples = 20\nvalue = 75.45"] ;
841 -> 847 ;
848 [label="mse = 261.884\nsamples = 19\nvalue = 75.105"] ;
847 -> 848 ;
849 [label="mse = 0.0\nsamples = 1\nvalue = 82.0"] ;
847 -> 849 ;
850 [label="cleaning_fee <= 190.0\nmse = 202.826\nsamples = 24\nvalue = 81.917"] ;
838 -> 850 ;
851 [label="bathrooms <= 1.5\nmse = 137.058\nsamples = 22\nvalue = 80.182"] ;
850 -> 851 ;
852 [label="accommodates <= 2.5\nmse = 129.474\nsamples = 21\nvalue = 79.381"] ;
851 -> 852 ;
853 [label="mse = 40.222\nsamples = 3\nvalue = 86.667"] ;
852 -> 853 ;
854 [label="accommodates <= 5.0\nmse = 134.028\nsamples = 18\nvalue = 78.167"] ;
852 -> 854 ;
855 [label="accommodates <= 3.5\nmse = 137.758\nsamples = 17\nvalue = 78.647"] ;
854 -> 855 ;
856 [label="mse = 262.0\nsamples = 6\nvalue = 77.0"] ;
855 -> 856 ;
857 [label="mse = 67.702\nsamples = 11\nvalue = 79.545"] ;
855 -> 857 ;
858 [label="mse = 0.0\nsamples = 1\nvalue = 70.0"] ;
854 -> 858 ;
859 [label="mse = 0.0\nsamples = 1\nvalue = 97.0"] ;
851 -> 859 ;
860 [label="mse = 529.0\nsamples = 2\nvalue = 101.0"] ;
850 -> 860 ;
861 [label="mse = 3642.24\nsamples = 10\nvalue = 183.6"] ;
837 -> 861 ;
862 [label="accommodates <= 2.5\nmse = 19115.288\nsamples = 582\nvalue = 232.251"] ;
706 -> 862 ;
863 [label="security_deposit <= 1547.5\nmse = 11345.395\nsamples = 234\nvalue = 201.517"] ;
862 -> 863 ;
864 [label="cleaning_fee <= 135.5\nmse = 10805.285\nsamples = 230\nvalue = 198.63"] ;
863 -> 864 ;
865 [label="security_deposit <= 535.0\nmse = 9629.597\nsamples = 105\nvalue = 178.343"] ;
864 -> 865 ;
866 [label="minimum_nights <= 1.5\nmse = 8532.909\nsamples = 84\nvalue = 169.321"] ;
865 -> 866 ;
867 [label="beds <= 1.5\nmse = 18230.465\nsamples = 16\nvalue = 210.312"] ;
866 -> 867 ;
868 [label="mse = 9139.801\nsamples = 14\nvalue = 186.357"] ;
867 -> 868 ;
869 [label="mse = 49729.0\nsamples = 2\nvalue = 378.0"] ;
867 -> 869 ;
870 [label="bathrooms <= 1.25\nmse = 5762.748\nsamples = 68\nvalue = 159.676"] ;
866 -> 870 ;
871 [label="accommodates <= 1.5\nmse = 3832.343\nsamples = 60\nvalue = 151.417"] ;
870 -> 871 ;
872 [label="mse = 12.25\nsamples = 2\nvalue = 77.5"] ;
871 -> 872 ;
873 [label="cleaning_fee <= 99.5\nmse = 3769.171\nsamples = 58\nvalue = 153.966"] ;
871 -> 873 ;
874 [label="mse = 0.0\nsamples = 1\nvalue = 74.0"] ;
873 -> 874 ;
875 [label="cleaning_fee <= 125.0\nmse = 3721.145\nsamples = 57\nvalue = 155.368"] ;
873 -> 875 ;
876 [label="cleaning_fee <= 108.5\nmse = 4100.162\nsamples = 50\nvalue = 158.72"] ;
875 -> 876 ;
877 [label="minimum_nights <= 3.5\nmse = 4604.196\nsamples = 30\nvalue = 150.933"] ;
876 -> 877 ;
878 [label="beds <= 1.5\nmse = 5211.724\nsamples = 23\nvalue = 158.565"] ;
877 -> 878 ;
879 [label="bedrooms <= 0.5\nmse = 6250.562\nsamples = 16\nvalue = 168.25"] ;
878 -> 879 ;
880 [label="mse = 2648.245\nsamples = 7\nvalue = 146.571"] ;
879 -> 880 ;
881 [label="mse = 8402.543\nsamples = 9\nvalue = 185.111"] ;
879 -> 881 ;
882 [label="mse = 2132.816\nsamples = 7\nvalue = 136.429"] ;
878 -> 882 ;
883 [label="mse = 1787.837\nsamples = 7\nvalue = 125.857"] ;
877 -> 883 ;
884 [label="cleaning_fee <= 118.5\nmse = 3116.74\nsamples = 20\nvalue = 170.4"] ;
876 -> 884 ;
885 [label="mse = 11449.0\nsamples = 2\nvalue = 243.0"] ;
884 -> 885 ;
886 [label="security_deposit <= 320.0\nmse = 1540.222\nsamples = 18\nvalue = 162.333"] ;
884 -> 886 ;
887 [label="mse = 1506.359\nsamples = 8\nvalue = 145.125"] ;
886 -> 887 ;
888 [label="mse = 1140.89\nsamples = 10\nvalue = 176.1"] ;
886 -> 888 ;
889 [label="mse = 360.531\nsamples = 7\nvalue = 131.429"] ;
875 -> 889 ;
890 [label="mse = 15891.484\nsamples = 8\nvalue = 221.625"] ;
870 -> 890 ;
891 [label="beds <= 1.5\nmse = 12388.626\nsamples = 21\nvalue = 214.429"] ;
865 -> 891 ;
892 [label="security_deposit <= 650.0\nmse = 7777.183\nsamples = 17\nvalue = 196.588"] ;
891 -> 892 ;
893 [label="mse = 13469.188\nsamples = 4\nvalue = 283.75"] ;
892 -> 893 ;
894 [label="mse = 2968.947\nsamples = 13\nvalue = 169.769"] ;
892 -> 894 ;
895 [label="mse = 24885.688\nsamples = 4\nvalue = 290.25"] ;
891 -> 895 ;
896 [label="guests_included <= 4.0\nmse = 11156.716\nsamples = 125\nvalue = 215.672"] ;
864 -> 896 ;
897 [label="cleaning_fee <= 305.0\nmse = 10883.628\nsamples = 124\nvalue = 213.968"] ;
896 -> 897 ;
898 [label="cleaning_fee <= 215.0\nmse = 10628.347\nsamples = 122\nvalue = 211.533"] ;
897 -> 898 ;
899 [label="cleaning_fee <= 192.0\nmse = 10726.47\nsamples = 113\nvalue = 216.841"] ;
898 -> 899 ;
900 [label="beds <= 2.5\nmse = 9824.291\nsamples = 98\nvalue = 208.786"] ;
899 -> 900 ;
901 [label="cleaning_fee <= 137.0\nmse = 8273.454\nsamples = 96\nvalue = 206.062"] ;
900 -> 901 ;
902 [label="mse = 0.0\nsamples = 1\nvalue = 369.0"] ;
901 -> 902 ;
903 [label="minimum_nights <= 1.5\nmse = 8078.142\nsamples = 95\nvalue = 204.347"] ;
901 -> 903 ;
904 [label="beds <= 1.5\nmse = 10653.31\nsamples = 20\nvalue = 234.3"] ;
903 -> 904 ;
905 [label="security_deposit <= 405.0\nmse = 8608.109\nsamples = 16\nvalue = 216.875"] ;
904 -> 905 ;
906 [label="mse = 3662.688\nsamples = 8\nvalue = 156.25"] ;
905 -> 906 ;
907 [label="mse = 6202.75\nsamples = 8\nvalue = 277.5"] ;
905 -> 907 ;
908 [label="mse = 12761.5\nsamples = 4\nvalue = 304.0"] ;
904 -> 908 ;
909 [label="beds <= 1.5\nmse = 7088.39\nsamples = 75\nvalue = 196.36"] ;
903 -> 909 ;
910 [label="cleaning_fee <= 144.5\nmse = 7419.22\nsamples = 69\nvalue = 200.377"] ;
909 -> 910 ;
911 [label="mse = 13208.8\nsamples = 5\nvalue = 250.0"] ;
910 -> 911 ;
912 [label="minimum_nights <= 3.5\nmse = 6759.5\nsamples = 64\nvalue = 196.5"] ;
910 -> 912 ;
913 [label="accommodates <= 1.5\nmse = 4046.94\nsamples = 45\nvalue = 186.644"] ;
912 -> 913 ;
914 [label="mse = 0.0\nsamples = 1\nvalue = 101.0"] ;
913 -> 914 ;
915 [label="cleaning_fee <= 154.5\nmse = 3968.424\nsamples = 44\nvalue = 188.591"] ;
913 -> 915 ;
916 [label="cleaning_fee <= 152.0\nmse = 3696.516\nsamples = 29\nvalue = 179.034"] ;
915 -> 916 ;
917 [label="security_deposit <= 171.0\nmse = 3579.606\nsamples = 28\nvalue = 181.964"] ;
916 -> 917 ;
918 [label="bedrooms <= 0.5\nmse = 3492.996\nsamples = 16\nvalue = 195.438"] ;
917 -> 918 ;
919 [label="mse = 4304.222\nsamples = 3\nvalue = 248.333"] ;
918 -> 919 ;
920 [label="mse = 2511.101\nsamples = 13\nvalue = 183.231"] ;
918 -> 920 ;
921 [label="mse = 3130.333\nsamples = 12\nvalue = 164.0"] ;
917 -> 921 ;
922 [label="mse = 0.0\nsamples = 1\nvalue = 97.0"] ;
916 -> 922 ;
923 [label="mse = 3976.196\nsamples = 15\nvalue = 207.067"] ;
915 -> 923 ;
924 [label="cleaning_fee <= 152.5\nmse = 12409.08\nsamples = 19\nvalue = 219.842"] ;
912 -> 924 ;
925 [label="mse = 15322.41\nsamples = 12\nvalue = 249.583"] ;
924 -> 925 ;
926 [label="mse = 3298.98\nsamples = 7\nvalue = 168.857"] ;
924 -> 926 ;
927 [label="mse = 964.472\nsamples = 6\nvalue = 150.167"] ;
909 -> 927 ;
928 [label="mse = 66822.25\nsamples = 2\nvalue = 339.5"] ;
900 -> 928 ;
929 [label="mse = 13427.316\nsamples = 15\nvalue = 269.467"] ;
899 -> 929 ;
930 [label="mse = 4601.21\nsamples = 9\nvalue = 144.889"] ;
898 -> 930 ;
931 [label="mse = 4032.25\nsamples = 2\nvalue = 362.5"] ;
897 -> 931 ;
932 [label="mse = 0.0\nsamples = 1\nvalue = 427.0"] ;
896 -> 932 ;
933 [label="mse = 14372.25\nsamples = 4\nvalue = 367.5"] ;
863 -> 933 ;
934 [label="bedrooms <= 0.5\nmse = 23277.657\nsamples = 348\nvalue = 252.917"] ;
862 -> 934 ;
935 [label="security_deposit <= 375.0\nmse = 5053.574\nsamples = 49\nvalue = 195.653"] ;
934 -> 935 ;
936 [label="accommodates <= 3.5\nmse = 2888.034\nsamples = 28\nvalue = 175.464"] ;
935 -> 936 ;
937 [label="mse = 1092.243\nsamples = 12\nvalue = 158.583"] ;
936 -> 937 ;
938 [label="cleaning_fee <= 135.0\nmse = 3860.859\nsamples = 16\nvalue = 188.125"] ;
936 -> 938 ;
939 [label="mse = 2082.889\nsamples = 9\nvalue = 172.0"] ;
938 -> 939 ;
940 [label="mse = 5382.694\nsamples = 7\nvalue = 208.857"] ;
938 -> 940 ;
941 [label="security_deposit <= 689.0\nmse = 6672.912\nsamples = 21\nvalue = 222.571"] ;
935 -> 941 ;
942 [label="mse = 4384.379\nsamples = 13\nvalue = 255.923"] ;
941 -> 942 ;
943 [label="mse = 5646.984\nsamples = 8\nvalue = 168.375"] ;
941 -> 943 ;
944 [label="minimum_nights <= 1.5\nmse = 25638.766\nsamples = 299\nvalue = 262.301"] ;
934 -> 944 ;
945 [label="security_deposit <= 634.0\nmse = 55156.924\nsamples = 69\nvalue = 304.725"] ;
944 -> 945 ;
946 [label="accommodates <= 4.5\nmse = 26470.05\nsamples = 60\nvalue = 282.983"] ;
945 -> 946 ;
947 [label="cleaning_fee <= 290.0\nmse = 10855.52\nsamples = 50\nvalue = 260.0"] ;
946 -> 947 ;
948 [label="guests_included <= 3.5\nmse = 9867.544\nsamples = 49\nvalue = 255.082"] ;
947 -> 948 ;
949 [label="security_deposit <= 550.0\nmse = 10372.028\nsamples = 36\nvalue = 272.833"] ;
948 -> 949 ;
950 [label="beds <= 1.5\nmse = 9787.689\nsamples = 34\nvalue = 280.676"] ;
949 -> 950 ;
951 [label="bathrooms <= 1.5\nmse = 11573.652\nsamples = 16\nvalue = 253.812"] ;
950 -> 951 ;
952 [label="mse = 11593.556\nsamples = 15\nvalue = 260.667"] ;
951 -> 952 ;
953 [label="mse = 0.0\nsamples = 1\nvalue = 151.0"] ;
951 -> 953 ;
954 [label="security_deposit <= 375.0\nmse = 6988.469\nsamples = 18\nvalue = 304.556"] ;
950 -> 954 ;
955 [label="cleaning_fee <= 122.5\nmse = 4562.109\nsamples = 16\nvalue = 286.375"] ;
954 -> 955 ;
956 [label="mse = 4202.667\nsamples = 6\nvalue = 233.0"] ;
955 -> 956 ;
957 [label="mse = 2042.84\nsamples = 10\nvalue = 318.4"] ;
955 -> 957 ;
958 [label="mse = 2601.0\nsamples = 2\nvalue = 450.0"] ;
954 -> 958 ;
959 [label="mse = 1482.25\nsamples = 2\nvalue = 139.5"] ;
949 -> 959 ;
960 [label="mse = 5181.302\nsamples = 13\nvalue = 205.923"] ;
948 -> 960 ;
961 [label="mse = 0.0\nsamples = 1\nvalue = 501.0"] ;
947 -> 961 ;
962 [label="mse = 88695.69\nsamples = 10\nvalue = 397.9"] ;
946 -> 962 ;
963 [label="mse = 222243.333\nsamples = 9\nvalue = 449.667"] ;
945 -> 963 ;
964 [label="cleaning_fee <= 152.5\nmse = 16081.41\nsamples = 230\nvalue = 249.574"] ;
944 -> 964 ;
965 [label="beds <= 5.5\nmse = 11092.999\nsamples = 162\nvalue = 229.438"] ;
964 -> 965 ;
966 [label="beds <= 1.5\nmse = 10299.07\nsamples = 161\nvalue = 227.13"] ;
965 -> 966 ;
967 [label="minimum_nights <= 3.5\nmse = 12420.286\nsamples = 49\nvalue = 255.857"] ;
966 -> 967 ;
968 [label="security_deposit <= 450.0\nmse = 8125.605\nsamples = 38\nvalue = 230.026"] ;
967 -> 968 ;
969 [label="security_deposit <= 185.0\nmse = 10385.462\nsamples = 26\nvalue = 246.0"] ;
968 -> 969 ;
970 [label="cleaning_fee <= 115.0\nmse = 10223.222\nsamples = 24\nvalue = 239.833"] ;
969 -> 970 ;
971 [label="mse = 972.75\nsamples = 4\nvalue = 173.5"] ;
970 -> 971 ;
972 [label="accommodates <= 5.5\nmse = 11017.29\nsamples = 20\nvalue = 253.1"] ;
970 -> 972 ;
973 [label="cleaning_fee <= 145.0\nmse = 11688.444\nsamples = 18\nvalue = 245.667"] ;
972 -> 973 ;
974 [label="mse = 205.556\nsamples = 3\nvalue = 169.333"] ;
973 -> 974 ;
975 [label="mse = 12586.596\nsamples = 15\nvalue = 260.933"] ;
973 -> 975 ;
976 [label="mse = 4.0\nsamples = 2\nvalue = 320.0"] ;
972 -> 976 ;
977 [label="mse = 6400.0\nsamples = 2\nvalue = 320.0"] ;
969 -> 977 ;
978 [label="mse = 1478.576\nsamples = 12\nvalue = 195.417"] ;
968 -> 978 ;
979 [label="mse = 16988.81\nsamples = 11\nvalue = 345.091"] ;
967 -> 979 ;
980 [label="security_deposit <= 525.0\nmse = 8852.05\nsamples = 112\nvalue = 214.562"] ;
966 -> 980 ;
981 [label="guests_included <= 4.5\nmse = 6455.404\nsamples = 90\nvalue = 200.544"] ;
980 -> 981 ;
982 [label="security_deposit <= 150.0\nmse = 6270.427\nsamples = 89\nvalue = 202.236"] ;
981 -> 982 ;
983 [label="guests_included <= 1.5\nmse = 7726.69\nsamples = 47\nvalue = 215.766"] ;
982 -> 983 ;
984 [label="accommodates <= 3.5\nmse = 7860.487\nsamples = 41\nvalue = 225.585"] ;
983 -> 984 ;
985 [label="mse = 1226.583\nsamples = 6\nvalue = 187.5"] ;
984 -> 985 ;
986 [label="cleaning_fee <= 125.0\nmse = 8706.444\nsamples = 35\nvalue = 232.114"] ;
984 -> 986 ;
987 [label="minimum_nights <= 2.5\nmse = 6706.698\nsamples = 21\nvalue = 213.333"] ;
986 -> 987 ;
988 [label="mse = 9365.64\nsamples = 10\nvalue = 186.6"] ;
987 -> 988 ;
989 [label="mse = 3049.14\nsamples = 11\nvalue = 237.636"] ;
987 -> 989 ;
990 [label="mse = 10383.347\nsamples = 14\nvalue = 260.286"] ;
986 -> 990 ;
991 [label="mse = 1651.222\nsamples = 6\nvalue = 148.667"] ;
983 -> 991 ;
992 [label="guests_included <= 3.5\nmse = 4206.705\nsamples = 42\nvalue = 187.095"] ;
982 -> 992 ;
993 [label="beds <= 2.5\nmse = 3799.067\nsamples = 41\nvalue = 183.61"] ;
992 -> 993 ;
994 [label="minimum_nights <= 3.5\nmse = 1607.151\nsamples = 35\nvalue = 177.857"] ;
993 -> 994 ;
995 [label="security_deposit <= 392.0\nmse = 991.743\nsamples = 29\nvalue = 172.655"] ;
994 -> 995 ;
996 [label="mse = 352.56\nsamples = 5\nvalue = 152.2"] ;
995 -> 996 ;
997 [label="accommodates <= 4.5\nmse = 1019.576\nsamples = 24\nvalue = 176.917"] ;
995 -> 997 ;
998 [label="accommodates <= 3.5\nmse = 820.561\nsamples = 17\nvalue = 171.294"] ;
997 -> 998 ;
999 [label="mse = 768.438\nsamples = 8\nvalue = 184.25"] ;
998 -> 999 ;
1000 [label="mse = 585.062\nsamples = 9\nvalue = 159.778"] ;
998 -> 1000 ;
1001 [label="mse = 1239.673\nsamples = 7\nvalue = 190.571"] ;
997 -> 1001 ;
1002 [label="mse = 3818.667\nsamples = 6\nvalue = 203.0"] ;
994 -> 1002 ;
1003 [label="mse = 15266.139\nsamples = 6\nvalue = 217.167"] ;
993 -> 1003 ;
1004 [label="mse = 0.0\nsamples = 1\nvalue = 330.0"] ;
992 -> 1004 ;
1005 [label="mse = 0.0\nsamples = 1\nvalue = 50.0"] ;
981 -> 1005 ;
1006 [label="guests_included <= 1.5\nmse = 14563.992\nsamples = 22\nvalue = 271.909"] ;
980 -> 1006 ;
1007 [label="security_deposit <= 575.0\nmse = 13952.039\nsamples = 19\nvalue = 290.526"] ;
1006 -> 1007 ;
1008 [label="mse = 0.0\nsamples = 1\nvalue = 458.0"] ;
1007 -> 1008 ;
1009 [label="security_deposit <= 1050.0\nmse = 13082.395\nsamples = 18\nvalue = 281.222"] ;
1007 -> 1009 ;
1010 [label="mse = 5522.213\nsamples = 13\nvalue = 252.692"] ;
1009 -> 1010 ;
1011 [label="mse = 25120.24\nsamples = 5\nvalue = 355.4"] ;
1009 -> 1011 ;
1012 [label="mse = 2342.0\nsamples = 3\nvalue = 154.0"] ;
1006 -> 1012 ;
1013 [label="mse = 0.0\nsamples = 1\nvalue = 601.0"] ;
965 -> 1013 ;
1014 [label="cleaning_fee <= 162.5\nmse = 24698.513\nsamples = 68\nvalue = 297.544"] ;
964 -> 1014 ;
1015 [label="mse = 75108.694\nsamples = 11\nvalue = 403.182"] ;
1014 -> 1015 ;
1016 [label="security_deposit <= 568.5\nmse = 12401.08\nsamples = 57\nvalue = 277.158"] ;
1014 -> 1016 ;
1017 [label="beds <= 1.5\nmse = 13642.311\nsamples = 38\nvalue = 304.711"] ;
1016 -> 1017 ;
1018 [label="minimum_nights <= 4.0\nmse = 6997.247\nsamples = 18\nvalue = 248.556"] ;
1017 -> 1018 ;
1019 [label="security_deposit <= 125.0\nmse = 6021.984\nsamples = 16\nvalue = 262.875"] ;
1018 -> 1019 ;
1020 [label="mse = 2774.41\nsamples = 10\nvalue = 238.7"] ;
1019 -> 1020 ;
1021 [label="mse = 8837.139\nsamples = 6\nvalue = 303.167"] ;
1019 -> 1021 ;
1022 [label="mse = 36.0\nsamples = 2\nvalue = 134.0"] ;
1018 -> 1022 ;
1023 [label="minimum_nights <= 3.5\nmse = 14230.587\nsamples = 20\nvalue = 355.25"] ;
1017 -> 1023 ;
1024 [label="mse = 1720.267\nsamples = 15\nvalue = 321.0"] ;
1023 -> 1024 ;
1025 [label="mse = 37684.8\nsamples = 5\nvalue = 458.0"] ;
1023 -> 1025 ;
1026 [label="cleaning_fee <= 192.5\nmse = 5363.734\nsamples = 19\nvalue = 222.053"] ;
1016 -> 1026 ;
1027 [label="mse = 1299.96\nsamples = 10\nvalue = 177.8"] ;
1026 -> 1027 ;
1028 [label="mse = 5285.506\nsamples = 9\nvalue = 271.222"] ;
1026 -> 1028 ;
1029 [label="cleaning_fee <= 199.0\nmse = 6768.28\nsamples = 1411\nvalue = 176.393"] ;
705 -> 1029 ;
1030 [label="guests_included <= 1.5\nmse = 6123.502\nsamples = 1281\nvalue = 171.238"] ;
1029 -> 1030 ;
1031 [label="accommodates <= 1.5\nmse = 4913.842\nsamples = 332\nvalue = 149.63"] ;
1030 -> 1031 ;
1032 [label="extra_people <= 94.0\nmse = 2249.75\nsamples = 24\nvalue = 98.5"] ;
1031 -> 1032 ;
1033 [label="security_deposit <= 1100.0\nmse = 1319.955\nsamples = 23\nvalue = 91.957"] ;
1032 -> 1033 ;
1034 [label="extra_people <= 61.5\nmse = 988.658\nsamples = 21\nvalue = 86.095"] ;
1033 -> 1034 ;
1035 [label="mse = 927.573\nsamples = 15\nvalue = 77.6"] ;
1034 -> 1035 ;
1036 [label="mse = 509.889\nsamples = 6\nvalue = 107.333"] ;
1034 -> 1036 ;
1037 [label="mse = 650.25\nsamples = 2\nvalue = 153.5"] ;
1033 -> 1037 ;
1038 [label="mse = 0.0\nsamples = 1\nvalue = 249.0"] ;
1032 -> 1038 ;
1039 [label="bathrooms <= 1.75\nmse = 4901.854\nsamples = 308\nvalue = 153.614"] ;
1031 -> 1039 ;
1040 [label="cleaning_fee <= 132.5\nmse = 4913.901\nsamples = 275\nvalue = 157.513"] ;
1039 -> 1040 ;
1041 [label="extra_people <= 39.5\nmse = 4855.86\nsamples = 148\nvalue = 147.304"] ;
1040 -> 1041 ;
1042 [label="accommodates <= 3.5\nmse = 2328.822\nsamples = 65\nvalue = 128.708"] ;
1041 -> 1042 ;
1043 [label="extra_people <= 19.5\nmse = 2107.207\nsamples = 43\nvalue = 117.047"] ;
1042 -> 1043 ;
1044 [label="mse = 9409.0\nsamples = 2\nvalue = 194.0"] ;
1043 -> 1044 ;
1045 [label="maximum_nights <= 30.5\nmse = 1448.061\nsamples = 41\nvalue = 113.293"] ;
1043 -> 1045 ;
1046 [label="mse = 1980.25\nsamples = 2\nvalue = 176.5"] ;
1045 -> 1046 ;
1047 [label="minimum_nights <= 1.5\nmse = 1205.382\nsamples = 39\nvalue = 110.051"] ;
1045 -> 1047 ;
1048 [label="mse = 1039.889\nsamples = 6\nvalue = 143.667"] ;
1047 -> 1048 ;
1049 [label="minimum_nights <= 2.5\nmse = 992.663\nsamples = 33\nvalue = 103.939"] ;
1047 -> 1049 ;
1050 [label="cleaning_fee <= 125.5\nmse = 923.81\nsamples = 21\nvalue = 93.0"] ;
1049 -> 1050 ;
1051 [label="extra_people <= 37.5\nmse = 729.197\nsamples = 19\nvalue = 88.474"] ;
1050 -> 1051 ;
1052 [label="security_deposit <= 850.0\nmse = 626.173\nsamples = 18\nvalue = 91.222"] ;
1051 -> 1052 ;
1053 [label="cleaning_fee <= 105.0\nmse = 559.439\nsamples = 17\nvalue = 88.824"] ;
1052 -> 1053 ;
1054 [label="mse = 316.446\nsamples = 11\nvalue = 98.091"] ;
1053 -> 1054 ;
1055 [label="mse = 558.806\nsamples = 6\nvalue = 71.833"] ;
1053 -> 1055 ;
1056 [label="mse = 0.0\nsamples = 1\nvalue = 132.0"] ;
1052 -> 1056 ;
1057 [label="mse = 0.0\nsamples = 1\nvalue = 39.0"] ;
1051 -> 1057 ;
1058 [label="mse = 729.0\nsamples = 2\nvalue = 136.0"] ;
1050 -> 1058 ;
1059 [label="mse = 537.243\nsamples = 12\nvalue = 123.083"] ;
1049 -> 1059 ;
1060 [label="extra_people <= 36.5\nmse = 1976.705\nsamples = 22\nvalue = 151.5"] ;
1042 -> 1060 ;
1061 [label="cleaning_fee <= 98.5\nmse = 1681.99\nsamples = 20\nvalue = 158.1"] ;
1060 -> 1061 ;
1062 [label="mse = 36.0\nsamples = 2\nvalue = 103.0"] ;
1061 -> 1062 ;
1063 [label="maximum_nights <= 109.5\nmse = 1490.062\nsamples = 18\nvalue = 164.222"] ;
1061 -> 1063 ;
1064 [label="mse = 472.96\nsamples = 5\nvalue = 134.8"] ;
1063 -> 1064 ;
1065 [label="mse = 1420.249\nsamples = 13\nvalue = 175.538"] ;
1063 -> 1065 ;
1066 [label="mse = 132.25\nsamples = 2\nvalue = 85.5"] ;
1060 -> 1066 ;
1067 [label="cleaning_fee <= 123.0\nmse = 6351.946\nsamples = 83\nvalue = 161.867"] ;
1041 -> 1067 ;
1068 [label="cleaning_fee <= 98.0\nmse = 6655.716\nsamples = 75\nvalue = 166.667"] ;
1067 -> 1068 ;
1069 [label="mse = 0.0\nsamples = 1\nvalue = 43.0"] ;
1068 -> 1069 ;
1070 [label="maximum_nights <= 45.0\nmse = 6536.197\nsamples = 74\nvalue = 168.338"] ;
1068 -> 1070 ;
1071 [label="mse = 2582.367\nsamples = 13\nvalue = 140.308"] ;
1070 -> 1071 ;
1072 [label="maximum_nights <= 74.0\nmse = 7175.69\nsamples = 61\nvalue = 174.311"] ;
1070 -> 1072 ;
1073 [label="mse = 1369.0\nsamples = 2\nvalue = 316.0"] ;
1072 -> 1073 ;
1074 [label="minimum_nights <= 2.5\nmse = 6668.928\nsamples = 59\nvalue = 169.508"] ;
1072 -> 1074 ;
1075 [label="maximum_nights <= 105.0\nmse = 8599.45\nsamples = 35\nvalue = 186.514"] ;
1074 -> 1075 ;
1076 [label="mse = 31862.25\nsamples = 2\nvalue = 318.5"] ;
1075 -> 1076 ;
1077 [label="bedrooms <= 0.5\nmse = 6069.826\nsamples = 33\nvalue = 178.515"] ;
1075 -> 1077 ;
1078 [label="mse = 0.0\nsamples = 2\nvalue = 299.0"] ;
1077 -> 1078 ;
1079 [label="security_deposit <= 389.0\nmse = 5464.45\nsamples = 31\nvalue = 170.742"] ;
1077 -> 1079 ;
1080 [label="extra_people <= 59.0\nmse = 4561.652\nsamples = 16\nvalue = 149.812"] ;
1079 -> 1080 ;
1081 [label="mse = 1151.917\nsamples = 6\nvalue = 96.5"] ;
1080 -> 1081 ;
1082 [label="mse = 3878.96\nsamples = 10\nvalue = 181.8"] ;
1080 -> 1082 ;
1083 [label="mse = 5461.796\nsamples = 15\nvalue = 193.067"] ;
1079 -> 1083 ;
1084 [label="maximum_nights <= 745.0\nmse = 2816.79\nsamples = 24\nvalue = 144.708"] ;
1074 -> 1084 ;
1085 [label="mse = 1292.531\nsamples = 7\nvalue = 100.429"] ;
1084 -> 1085 ;
1086 [label="minimum_nights <= 3.5\nmse = 2304.644\nsamples = 17\nvalue = 162.941"] ;
1084 -> 1086 ;
1087 [label="mse = 2282.09\nsamples = 10\nvalue = 183.1"] ;
1086 -> 1087 ;
1088 [label="mse = 926.98\nsamples = 7\nvalue = 134.143"] ;
1086 -> 1088 ;
1089 [label="mse = 1263.859\nsamples = 8\nvalue = 116.875"] ;
1067 -> 1089 ;
1090 [label="cleaning_fee <= 135.5\nmse = 4718.557\nsamples = 127\nvalue = 169.409"] ;
1040 -> 1090 ;
1091 [label="mse = 0.0\nsamples = 1\nvalue = 353.0"] ;
1090 -> 1091 ;
1092 [label="accommodates <= 2.5\nmse = 4486.379\nsamples = 126\nvalue = 167.952"] ;
1090 -> 1092 ;
1093 [label="beds <= 1.5\nmse = 4611.281\nsamples = 51\nvalue = 152.333"] ;
1092 -> 1093 ;
1094 [label="extra_people <= 79.0\nmse = 4839.019\nsamples = 39\nvalue = 165.513"] ;
1093 -> 1094 ;
1095 [label="bedrooms <= 0.5\nmse = 4815.625\nsamples = 33\nvalue = 155.364"] ;
1094 -> 1095 ;
1096 [label="mse = 3301.188\nsamples = 4\nvalue = 204.75"] ;
1095 -> 1096 ;
1097 [label="extra_people <= 50.5\nmse = 4641.696\nsamples = 29\nvalue = 148.552"] ;
1095 -> 1097 ;
1098 [label="security_deposit <= 525.0\nmse = 5650.603\nsamples = 21\nvalue = 161.333"] ;
1097 -> 1098 ;
1099 [label="mse = 7660.0\nsamples = 12\nvalue = 186.0"] ;
1098 -> 1099 ;
1100 [label="mse = 1078.469\nsamples = 9\nvalue = 128.444"] ;
1098 -> 1100 ;
1101 [label="mse = 438.75\nsamples = 8\nvalue = 115.0"] ;
1097 -> 1101 ;
1102 [label="mse = 1285.222\nsamples = 6\nvalue = 221.333"] ;
1094 -> 1102 ;
1103 [label="mse = 1471.917\nsamples = 12\nvalue = 109.5"] ;
1093 -> 1103 ;
1104 [label="beds <= 1.5\nmse = 4122.751\nsamples = 75\nvalue = 178.573"] ;
1092 -> 1104 ;
1105 [label="bedrooms <= 0.5\nmse = 4629.647\nsamples = 20\nvalue = 202.05"] ;
1104 -> 1105 ;
1106 [label="mse = 1529.222\nsamples = 6\nvalue = 137.667"] ;
1105 -> 1106 ;
1107 [label="mse = 3420.515\nsamples = 14\nvalue = 229.643"] ;
1105 -> 1107 ;
1108 [label="minimum_nights <= 2.5\nmse = 3665.126\nsamples = 55\nvalue = 170.036"] ;
1104 -> 1108 ;
1109 [label="extra_people <= 54.0\nmse = 3810.498\nsamples = 37\nvalue = 182.351"] ;
1108 -> 1109 ;
1110 [label="minimum_nights <= 1.5\nmse = 3692.582\nsamples = 30\nvalue = 190.867"] ;
1109 -> 1110 ;
1111 [label="mse = 3362.333\nsamples = 6\nvalue = 233.0"] ;
1110 -> 1111 ;
1112 [label="maximum_nights <= 40.5\nmse = 3220.389\nsamples = 24\nvalue = 180.333"] ;
1110 -> 1112 ;
1113 [label="mse = 841.0\nsamples = 2\nvalue = 111.0"] ;
1112 -> 1113 ;
1114 [label="accommodates <= 5.5\nmse = 2959.959\nsamples = 22\nvalue = 186.636"] ;
1112 -> 1114 ;
1115 [label="beds <= 3.5\nmse = 3031.627\nsamples = 20\nvalue = 191.15"] ;
1114 -> 1115 ;
1116 [label="security_deposit <= 679.0\nmse = 2537.806\nsamples = 18\nvalue = 183.5"] ;
1115 -> 1116 ;
1117 [label="mse = 3273.339\nsamples = 11\nvalue = 195.455"] ;
1116 -> 1117 ;
1118 [label="mse = 804.49\nsamples = 7\nvalue = 164.714"] ;
1116 -> 1118 ;
1119 [label="mse = 2209.0\nsamples = 2\nvalue = 260.0"] ;
1115 -> 1119 ;
1120 [label="mse = 2.25\nsamples = 2\nvalue = 141.5"] ;
1114 -> 1120 ;
1121 [label="mse = 2673.265\nsamples = 7\nvalue = 145.857"] ;
1109 -> 1121 ;
1122 [label="accommodates <= 4.5\nmse = 2413.756\nsamples = 18\nvalue = 144.722"] ;
1108 -> 1122 ;
1123 [label="maximum_nights <= 745.0\nmse = 1972.109\nsamples = 16\nvalue = 153.625"] ;
1122 -> 1123 ;
1124 [label="mse = 1655.609\nsamples = 8\nvalue = 135.875"] ;
1123 -> 1124 ;
1125 [label="mse = 1658.484\nsamples = 8\nvalue = 171.375"] ;
1123 -> 1125 ;
1126 [label="mse = 240.25\nsamples = 2\nvalue = 73.5"] ;
1122 -> 1126 ;
1127 [label="beds <= 1.5\nmse = 3619.016\nsamples = 33\nvalue = 121.121"] ;
1039 -> 1127 ;
1128 [label="accommodates <= 3.5\nmse = 2541.934\nsamples = 19\nvalue = 100.474"] ;
1127 -> 1128 ;
1129 [label="mse = 2502.649\nsamples = 15\nvalue = 112.533"] ;
1128 -> 1129 ;
1130 [label="mse = 98.688\nsamples = 4\nvalue = 55.25"] ;
1128 -> 1130 ;
1131 [label="mse = 3716.98\nsamples = 14\nvalue = 149.143"] ;
1127 -> 1131 ;
1132 [label="security_deposit <= 698.5\nmse = 6326.193\nsamples = 949\nvalue = 178.798"] ;
1030 -> 1132 ;
1133 [label="bedrooms <= 0.5\nmse = 5525.52\nsamples = 749\nvalue = 172.423"] ;
1132 -> 1133 ;
1134 [label="bathrooms <= 1.75\nmse = 4584.721\nsamples = 133\nvalue = 150.97"] ;
1133 -> 1134 ;
1135 [label="beds <= 5.5\nmse = 4088.096\nsamples = 131\nvalue = 148.053"] ;
1134 -> 1135 ;
1136 [label="security_deposit <= 475.0\nmse = 3631.4\nsamples = 130\nvalue = 146.123"] ;
1135 -> 1136 ;
1137 [label="minimum_nights <= 2.5\nmse = 2353.868\nsamples = 95\nvalue = 135.442"] ;
1136 -> 1137 ;
1138 [label="cleaning_fee <= 140.0\nmse = 1915.47\nsamples = 51\nvalue = 125.686"] ;
1137 -> 1138 ;
1139 [label="extra_people <= 32.5\nmse = 1252.745\nsamples = 38\nvalue = 112.789"] ;
1138 -> 1139 ;
1140 [label="security_deposit <= 362.5\nmse = 1303.607\nsamples = 19\nvalue = 126.158"] ;
1139 -> 1140 ;
1141 [label="mse = 725.686\nsamples = 11\nvalue = 147.364"] ;
1140 -> 1141 ;
1142 [label="mse = 629.75\nsamples = 8\nvalue = 97.0"] ;
1140 -> 1142 ;
1143 [label="extra_people <= 45.0\nmse = 844.454\nsamples = 19\nvalue = 99.421"] ;
1139 -> 1143 ;
1144 [label="mse = 331.506\nsamples = 9\nvalue = 76.778"] ;
1143 -> 1144 ;
1145 [label="mse = 429.36\nsamples = 10\nvalue = 119.8"] ;
1143 -> 1145 ;
1146 [label="mse = 1945.314\nsamples = 13\nvalue = 163.385"] ;
1138 -> 1146 ;
1147 [label="accommodates <= 4.5\nmse = 2623.824\nsamples = 44\nvalue = 146.75"] ;
1137 -> 1147 ;
1148 [label="cleaning_fee <= 107.5\nmse = 1769.774\nsamples = 40\nvalue = 140.775"] ;
1147 -> 1148 ;
1149 [label="mse = 1369.333\nsamples = 9\nvalue = 166.0"] ;
1148 -> 1149 ;
1150 [label="accommodates <= 1.5\nmse = 1647.667\nsamples = 31\nvalue = 133.452"] ;
1148 -> 1150 ;
1151 [label="mse = 0.0\nsamples = 1\nvalue = 70.0"] ;
1150 -> 1151 ;
1152 [label="cleaning_fee <= 132.5\nmse = 1563.912\nsamples = 30\nvalue = 135.567"] ;
1150 -> 1152 ;
1153 [label="mse = 1049.743\nsamples = 12\nvalue = 121.583"] ;
1152 -> 1153 ;
1154 [label="cleaning_fee <= 162.5\nmse = 1689.432\nsamples = 18\nvalue = 144.889"] ;
1152 -> 1154 ;
1155 [label="mse = 1741.372\nsamples = 14\nvalue = 153.357"] ;
1154 -> 1155 ;
1156 [label="mse = 378.188\nsamples = 4\nvalue = 115.25"] ;
1154 -> 1156 ;
1157 [label="mse = 7237.25\nsamples = 4\nvalue = 206.5"] ;
1147 -> 1157 ;
1158 [label="guests_included <= 2.5\nmse = 5948.844\nsamples = 35\nvalue = 175.114"] ;
1136 -> 1158 ;
1159 [label="maximum_nights <= 272.5\nmse = 3575.638\nsamples = 31\nvalue = 161.677"] ;
1158 -> 1159 ;
1160 [label="security_deposit <= 625.0\nmse = 2381.484\nsamples = 16\nvalue = 139.875"] ;
1159 -> 1160 ;
1161 [label="mse = 1163.84\nsamples = 15\nvalue = 130.6"] ;
1160 -> 1161 ;
1162 [label="mse = 0.0\nsamples = 1\nvalue = 279.0"] ;
1160 -> 1162 ;
1163 [label="mse = 3801.529\nsamples = 15\nvalue = 184.933"] ;
1159 -> 1163 ;
1164 [label="mse = 12097.688\nsamples = 4\nvalue = 279.25"] ;
1158 -> 1164 ;
1165 [label="mse = 0.0\nsamples = 1\nvalue = 399.0"] ;
1135 -> 1165 ;
1166 [label="mse = 64.0\nsamples = 2\nvalue = 342.0"] ;
1134 -> 1166 ;
1167 [label="minimum_nights <= 2.5\nmse = 5607.822\nsamples = 616\nvalue = 177.055"] ;
1133 -> 1167 ;
1168 [label="security_deposit <= 664.0\nmse = 6487.532\nsamples = 313\nvalue = 185.744"] ;
1167 -> 1168 ;
1169 [label="beds <= 2.5\nmse = 6465.865\nsamples = 309\nvalue = 186.906"] ;
1168 -> 1169 ;
1170 [label="cleaning_fee <= 137.0\nmse = 7461.055\nsamples = 219\nvalue = 192.37"] ;
1169 -> 1170 ;
1171 [label="maximum_nights <= 30.5\nmse = 4815.234\nsamples = 109\nvalue = 177.064"] ;
1170 -> 1171 ;
1172 [label="mse = 4499.776\nsamples = 14\nvalue = 215.714"] ;
1171 -> 1172 ;
1173 [label="guests_included <= 2.5\nmse = 4609.138\nsamples = 95\nvalue = 171.368"] ;
1171 -> 1173 ;
1174 [label="security_deposit <= 372.0\nmse = 4318.089\nsamples = 83\nvalue = 164.373"] ;
1173 -> 1174 ;
1175 [label="extra_people <= 22.5\nmse = 5307.967\nsamples = 55\nvalue = 178.182"] ;
1174 -> 1175 ;
1176 [label="mse = 16426.583\nsamples = 6\nvalue = 232.5"] ;
1175 -> 1176 ;
1177 [label="maximum_nights <= 240.0\nmse = 3540.984\nsamples = 49\nvalue = 171.531"] ;
1175 -> 1177 ;
1178 [label="mse = 3985.61\nsamples = 10\nvalue = 199.3"] ;
1177 -> 1178 ;
