digraph Tree {
node [shape=box] ;
graph [ranksep=equally, splines=polyline] ;
0 [label="bedrooms <= 1.5\nmae = 72.675\nsamples = 7793\nvalue = 178.0"] ;
1 [label="cleaning_fee <= 75.5\nmae = 60.808\nsamples = 5391\nvalue = 151.0"] ;
0 -> 1 [labeldistance=2.5, labelangle=45, headlabel="True"] ;
2 [label="guests_included <= 1.5\nmae = 52.197\nsamples = 1794\nvalue = 109.0"] ;
1 -> 2 ;
3 [label="accommodates <= 1.5\nmae = 47.561\nsamples = 1233\nvalue = 97.0"] ;
2 -> 3 ;
4 [label="mae = 29.444\nsamples = 171\nvalue = 70.0"] ;
3 -> 4 ;
5 [label="minimum_nights <= 1.5\nmae = 49.121\nsamples = 1062\nvalue = 101.0"] ;
3 -> 5 ;
6 [label="mae = 42.477\nsamples = 465\nvalue = 89.0"] ;
5 -> 6 ;
7 [label="mae = 52.977\nsamples = 597\nvalue = 109.0"] ;
5 -> 7 ;
8 [label="mae = 52.859\nsamples = 561\nvalue = 143.0"] ;
2 -> 8 ;
9 [label="cleaning_fee <= 131.0\nmae = 59.265\nsamples = 3597\nvalue = 171.0"] ;
1 -> 9 ;
10 [label="accommodates <= 1.5\nmae = 53.673\nsamples = 1591\nvalue = 151.0"] ;
9 -> 10 ;
11 [label="mae = 37.83\nsamples = 53\nvalue = 101.0"] ;
10 -> 11 ;
12 [label="accommodates <= 3.5\nmae = 53.706\nsamples = 1538\nvalue = 151.0"] ;
10 -> 12 ;
13 [label="bathrooms <= 1.75\nmae = 52.389\nsamples = 933\nvalue = 151.0"] ;
12 -> 13 ;
14 [label="cleaning_fee <= 79.5\nmae = 51.956\nsamples = 864\nvalue = 151.0"] ;
13 -> 14 ;
15 [label="mae = 68.261\nsamples = 23\nvalue = 186.0"] ;
14 -> 15 ;
16 [label="security_deposit <= 654.0\nmae = 51.233\nsamples = 841\nvalue = 151.0"] ;
14 -> 16 ;
17 [label="mae = 50.215\nsamples = 711\nvalue = 148.0"] ;
16 -> 17 ;
18 [label="mae = 55.915\nsamples = 130\nvalue = 159.0"] ;
16 -> 18 ;
19 [label="mae = 54.667\nsamples = 69\nvalue = 124.0"] ;
13 -> 19 ;
20 [label="mae = 54.593\nsamples = 605\nvalue = 171.0"] ;
12 -> 20 ;
21 [label="cleaning_fee <= 191.0\nmae = 61.041\nsamples = 2006\nvalue = 179.0"] ;
9 -> 21 ;
22 [label="guests_included <= 3.5\nmae = 58.917\nsamples = 1566\nvalue = 175.0"] ;
21 -> 22 ;
23 [label="security_deposit <= 465.0\nmae = 58.553\nsamples = 1436\nvalue = 171.0"] ;
22 -> 23 ;
24 [label="mae = 61.474\nsamples = 696\nvalue = 159.0"] ;
23 -> 24 ;
25 [label="mae = 54.722\nsamples = 740\nvalue = 178.0"] ;
23 -> 25 ;
26 [label="mae = 54.523\nsamples = 130\nvalue = 204.0"] ;
22 -> 26 ;
27 [label="mae = 63.602\nsamples = 440\nvalue = 209.0"] ;
21 -> 27 ;
28 [label="cleaning_fee <= 193.5\nmae = 71.128\nsamples = 2402\nvalue = 249.0"] ;
0 -> 28 [labeldistance=2.5, labelangle=-45, headlabel="False"] ;
29 [label="bathrooms <= 1.25\nmae = 71.516\nsamples = 1723\nvalue = 229.0"] ;
28 -> 29 ;
30 [label="mae = 71.697\nsamples = 468\nvalue = 194.0"] ;
29 -> 30 ;
31 [label="accommodates <= 3.5\nmae = 68.359\nsamples = 1255\nvalue = 245.0"] ;
29 -> 31 ;
32 [label="mae = 65.089\nsamples = 79\nvalue = 171.0"] ;
31 -> 32 ;
33 [label="guests_included <= 4.5\nmae = 66.786\nsamples = 1176\nvalue = 248.5"] ;
31 -> 33 ;
34 [label="minimum_nights <= 2.5\nmae = 66.563\nsamples = 997\nvalue = 244.0"] ;
33 -> 34 ;
35 [label="mae = 66.264\nsamples = 583\nvalue = 221.0"] ;
34 -> 35 ;
36 [label="mae = 64.401\nsamples = 414\nvalue = 249.0"] ;
34 -> 36 ;
37 [label="mae = 62.034\nsamples = 179\nvalue = 295.0"] ;
33 -> 37 ;
38 [label="mae = 60.406\nsamples = 679\nvalue = 291.0"] ;
28 -> 38 ;
{rank=same ; 0} ;
{rank=same ; 1; 28} ;
{rank=same ; 2; 9; 29} ;
{rank=same ; 3; 10; 21; 31} ;
{rank=same ; 5; 12; 22; 33} ;
{rank=same ; 13; 23; 34} ;
{rank=same ; 14} ;
{rank=same ; 16} ;
{rank=same ; 4; 6; 7; 8; 11; 15; 17; 18; 19; 20; 24; 25; 26; 27; 30; 32; 35; 36; 37; 38} ;
}