digraph Tree {
node [shape=box] ;
graph [ranksep=equally, splines=polyline] ;
0 [label="accommodates <= 3.5\nmae = 79.758\nsamples = 3533\nvalue = 178.0"] ;
1 [label="cleaning_fee <= 69.0\nmae = 70.296\nsamples = 2307\nvalue = 151.0"] ;
0 -> 1 [labeldistance=2.5, labelangle=45, headlabel="True"] ;
2 [label="minimum_nights <= 2.5\nmae = 55.031\nsamples = 613\nvalue = 105.0"] ;
1 -> 2 ;
3 [label="cleaning_fee <= 47.5\nmae = 49.462\nsamples = 487\nvalue = 101.0"] ;
2 -> 3 ;
4 [label="accommodates <= 1.5\nmae = 47.73\nsamples = 333\nvalue = 97.0"] ;
3 -> 4 ;
5 [label="mae = 39.93\nsamples = 57\nvalue = 70.0"] ;
4 -> 5 ;
6 [label="mae = 47.902\nsamples = 276\nvalue = 101.0"] ;
4 -> 6 ;
7 [label="mae = 50.468\nsamples = 154\nvalue = 120.0"] ;
3 -> 7 ;
8 [label="mae = 71.46\nsamples = 126\nvalue = 140.0"] ;
2 -> 8 ;
9 [label="minimum_nights <= 2.5\nmae = 72.274\nsamples = 1694\nvalue = 155.0"] ;
1 -> 9 ;
10 [label="accommodates <= 1.5\nmae = 66.38\nsamples = 1014\nvalue = 151.0"] ;
9 -> 10 ;
11 [label="mae = 51.66\nsamples = 150\nvalue = 91.0"] ;
10 -> 11 ;
12 [label="cleaning_fee <= 167.5\nmae = 66.215\nsamples = 864\nvalue = 151.0"] ;
10 -> 12 ;
13 [label="beds <= 6.0\nmae = 65.053\nsamples = 798\nvalue = 151.0"] ;
12 -> 13 ;
14 [label="bathrooms <= 2.25\nmae = 65.003\nsamples = 797\nvalue = 151.0"] ;
13 -> 14 ;
15 [label="guests_included <= 3.5\nmae = 65.365\nsamples = 784\nvalue = 151.0"] ;
14 -> 15 ;
16 [label="bedrooms <= 0.5\nmae = 65.313\nsamples = 782\nvalue = 151.0"] ;
15 -> 16 ;
17 [label="mae = 69.493\nsamples = 67\nvalue = 178.0"] ;
16 -> 17 ;
18 [label="cleaning_fee <= 72.5\nmae = 64.808\nsamples = 715\nvalue = 151.0"] ;
16 -> 18 ;
19 [label="mae = 72.162\nsamples = 37\nvalue = 178.0"] ;
18 -> 19 ;
20 [label="cleaning_fee <= 76.5\nmae = 64.288\nsamples = 678\nvalue = 151.0"] ;
18 -> 20 ;
21 [label="mae = 24.8\nsamples = 5\nvalue = 74.0"] ;
20 -> 21 ;
22 [label="guests_included <= 2.5\nmae = 64.262\nsamples = 673\nvalue = 151.0"] ;
20 -> 22 ;
23 [label="maximum_nights <= 25.5\nmae = 64.288\nsamples = 664\nvalue = 151.0"] ;
22 -> 23 ;
24 [label="maximum_nights <= 20.5\nmae = 64.429\nsamples = 629\nvalue = 151.0"] ;
23 -> 24 ;
25 [label="bedrooms <= 2.5\nmae = 63.979\nsamples = 608\nvalue = 151.0"] ;
24 -> 25 ;
26 [label="minimum_nights <= 1.5\nmae = 63.995\nsamples = 607\nvalue = 151.0"] ;
25 -> 26 ;
27 [label="mae = 62.447\nsamples = 295\nvalue = 143.0"] ;
26 -> 27 ;
28 [label="cleaning_fee <= 79.0\nmae = 65.292\nsamples = 312\nvalue = 151.0"] ;
26 -> 28 ;
29 [label="mae = 0.0\nsamples = 1\nvalue = 271.0"] ;
28 -> 29 ;
30 [label="cleaning_fee <= 111.0\nmae = 65.116\nsamples = 311\nvalue = 151.0"] ;
28 -> 30 ;
31 [label="mae = 57.453\nsamples = 75\nvalue = 140.0"] ;
30 -> 31 ;
32 [label="mae = 67.165\nsamples = 236\nvalue = 155.0"] ;
30 -> 32 ;
33 [label="mae = 0.0\nsamples = 1\nvalue = 97.0"] ;
25 -> 33 ;
34 [label="mae = 70.095\nsamples = 21\nvalue = 194.0"] ;
24 -> 34 ;
35 [label="mae = 59.886\nsamples = 35\nvalue = 128.0"] ;
23 -> 35 ;
36 [label="mae = 55.333\nsamples = 9\nvalue = 198.0"] ;
22 -> 36 ;
37 [label="mae = 34.5\nsamples = 2\nvalue = 236.5"] ;
15 -> 37 ;
38 [label="mae = 34.0\nsamples = 13\nvalue = 124.0"] ;
14 -> 38 ;
39 [label="mae = 0.0\nsamples = 1\nvalue = 256.0"] ;
13 -> 39 ;
40 [label="mae = 67.667\nsamples = 66\nvalue = 194.0"] ;
12 -> 40 ;
41 [label="accommodates <= 1.5\nmae = 74.309\nsamples = 680\nvalue = 198.0"] ;
9 -> 41 ;
42 [label="mae = 62.022\nsamples = 89\nvalue = 128.0"] ;
41 -> 42 ;
43 [label="cleaning_fee <= 111.5\nmae = 73.069\nsamples = 591\nvalue = 198.0"] ;
41 -> 43 ;
44 [label="mae = 69.626\nsamples = 107\nvalue = 159.0"] ;
43 -> 44 ;
45 [label="minimum_nights <= 3.5\nmae = 72.907\nsamples = 484\nvalue = 202.0"] ;
43 -> 45 ;
46 [label="mae = 66.07\nsamples = 242\nvalue = 194.0"] ;
45 -> 46 ;
47 [label="mae = 77.281\nsamples = 242\nvalue = 231.0"] ;
45 -> 47 ;
48 [label="cleaning_fee <= 128.5\nmae = 77.533\nsamples = 1226\nvalue = 240.0"] ;
0 -> 48 [labeldistance=2.5, labelangle=-45, headlabel="False"] ;
49 [label="minimum_nights <= 3.5\nmae = 75.455\nsamples = 404\nvalue = 190.0"] ;
48 -> 49 ;
50 [label="guests_included <= 1.5\nmae = 71.648\nsamples = 332\nvalue = 171.0"] ;
49 -> 50 ;
51 [label="mae = 72.711\nsamples = 204\nvalue = 159.0"] ;
50 -> 51 ;
52 [label="mae = 66.641\nsamples = 128\nvalue = 198.0"] ;
50 -> 52 ;
53 [label="mae = 78.403\nsamples = 72\nvalue = 248.0"] ;
49 -> 53 ;
54 [label="bedrooms <= 1.5\nmae = 72.163\nsamples = 822\nvalue = 249.0"] ;
48 -> 54 ;
55 [label="minimum_nights <= 4.5\nmae = 72.181\nsamples = 359\nvalue = 218.0"] ;
54 -> 55 ;
56 [label="mae = 66.987\nsamples = 297\nvalue = 206.0"] ;
55 -> 56 ;
57 [label="mae = 81.484\nsamples = 62\nvalue = 299.0"] ;
55 -> 57 ;
58 [label="maximum_nights <= 9.5\nmae = 68.117\nsamples = 463\nvalue = 275.0"] ;
54 -> 58 ;
59 [label="mae = 60.486\nsamples = 107\nvalue = 248.0"] ;
58 -> 59 ;
60 [label="minimum_nights <= 2.5\nmae = 67.632\nsamples = 356\nvalue = 295.0"] ;
58 -> 60 ;
61 [label="mae = 73.326\nsamples = 144\nvalue = 271.0"] ;
60 -> 61 ;
62 [label="mae = 62.811\nsamples = 212\nvalue = 299.0"] ;
60 -> 62 ;
{rank=same ; 0} ;
{rank=same ; 1; 48} ;
{rank=same ; 20} ;
{rank=same ; 22} ;
{rank=same ; 23} ;
{rank=same ; 24} ;
{rank=same ; 25} ;
{rank=same ; 26} ;
{rank=same ; 28} ;
{rank=same ; 30} ;
{rank=same ; 2; 9; 49; 54} ;
{rank=same ; 3; 10; 41; 50; 55; 58} ;
{rank=same ; 4; 12; 43; 60} ;
{rank=same ; 13; 45} ;
{rank=same ; 14} ;
{rank=same ; 15} ;
{rank=same ; 16} ;
{rank=same ; 18} ;
{rank=same ; 5; 6; 7; 8; 11; 17; 19; 21; 27; 29; 31; 32; 33; 34; 35; 36; 37; 38; 39; 40; 42; 44; 46; 47; 51; 52; 53; 56; 57; 59; 61; 62} ;
}